<?xml version="1.0"?>
<opencv_storage>
<OCR-digits type_id="opencv-ml-ann-mlp">
  <layer_sizes type_id="opencv-matrix">
    <rows>1</rows>
    <cols>3</cols>
    <dt>i</dt>
    <data>
      400 20 9</data></layer_sizes>
  <activation_function>SIGMOID_SYM</activation_function>
  <f_param1>5.9999999999999998e-01</f_param1>
  <f_param2>1.</f_param2>
  <min_val>-9.4999999999999996e-01</min_val>
  <max_val>9.4999999999999996e-01</max_val>
  <min_val1>-9.7999999999999998e-01</min_val1>
  <max_val1>9.7999999999999998e-01</max_val1>
  <training_params>
    <train_method>BACKPROP</train_method>
    <dw_scale>1.0000000000000001e-01</dw_scale>
    <moment_scale>1.0000000000000001e-01</moment_scale>
    <term_criteria><epsilon>9.9999999747524271e-07</epsilon>
      <iterations>1000</iterations></term_criteria></training_params>
  <input_scale>
    4.2859086623969587e+00 -2.4763027827182427e-01
    3.6744259955127188e+00 -2.9599542741630236e-01
    3.1478587088124006e+00 -3.5850613072585674e-01
    2.6995891031919181e+00 -4.4318254444067318e-01
    2.4195258615430348e+00 -5.2893523695399125e-01
    2.1289810864566183e+00 -6.9960684035504994e-01
    2.0329994260448911e+00 -8.3409448674119568e-01
    2.0058181916299707e+00 -9.2657657018906703e-01
    2.0005190291340371e+00 -1.0230432035099339e+00
    2.0085595761337887e+00 -1.0968967018552858e+00
    2.0391449720540855e+00 -1.2183891208023161e+00
    2.1299019824651744e+00 -1.4311758043286824e+00
    2.2238196516736313e+00 -1.5980615107999121e+00
    2.3017794598406751e+00 -1.7205801462309047e+00
    2.2094727066644300e+00 -1.5742493034984064e+00
    2.0771444766803198e+00 -1.3189867426920030e+00
    2.0048400438621417e+00 -1.0720325234540617e+00
    2.0061644951828730e+00 -9.2450747153010726e-01
    2.0590545471988051e+00 -7.8472856632132237e-01
    2.1681338343329464e+00 -6.6549663526052938e-01
    3.9632677932301252e+00 -2.7082329920405857e-01
    3.1924843579742372e+00 -3.5206008058771449e-01
    2.4922454311906574e+00 -5.0260282862344918e-01
    2.0958035415254659e+00 -7.3469557483476056e-01
    2.0419535423446584e+00 -8.1507978898590949e-01
    2.0040232183467053e+00 -9.3855087392570691e-01
    2.0055651173282247e+00 -9.2813096818578400e-01
    2.0013052890692888e+00 -9.6451796570422677e-01
    2.0000892034984572e+00 -1.0094894674324157e+00
    2.0040232183467053e+00 -1.0654723444209981e+00
    2.0053177387580692e+00 -1.0756301537616200e+00
    2.0106477021835558e+00 -1.1086488024539884e+00
    2.0424319703130327e+00 -1.2282958932576988e+00
    2.1110016546037453e+00 -1.3932610920384720e+00
    2.2539213604208181e+00 -1.6466147716407642e+00
    2.4162162186675351e+00 -1.8859909929043817e+00
    2.3772497543993025e+00 -1.8311426580414627e+00
    2.1340979750564193e+00 -1.4393305231769404e+00
    2.0014710658803061e+00 -1.0390970617028590e+00
    2.1821789023599236e+00 -6.5465367070797709e-01
    4.2107596053325951e+00 -2.5264557631995571e-01
    2.6187837314708182e+00 -4.6410667241066167e-01
    2.1574395598823748e+00 -6.7419986246324215e-01
    2.0887071892946594e+00 -7.4323164152401633e-01
    2.0581932237454543e+00 -7.8611546740277760e-01
    2.0622741182793152e+00 -7.7965418749392990e-01
    2.0768088325380374e+00 -7.5861211521875527e-01
    2.0438850858684390e+00 -8.1130882991833309e-01
    2.0539930217924440e+00 -7.9306952785874929e-01
    2.0778183299920530e+00 -7.5724934693043711e-01
    2.0996711939066821e+00 -7.3021898188087953e-01
    2.0942822990649459e+00 -7.3648927517117269e-01
    2.0610921600928460e+00 -7.8149744403520405e-01
    2.0230597453244665e+00 -8.5923843072253037e-01
    2.0001778014849938e+00 -1.0134234194190637e+00
    2.0526320231631421e+00 -1.2572371141874246e+00
    2.1600691233179368e+00 -1.4880476182856897e+00
    2.2231525424265604e+00 -1.5969645763097460e+00
    2.0166757092445251e+00 -1.1377412126321196e+00
    2.2821814501508544e+00 -5.9146535916409637e-01
    3.4376193638557924e+00 -3.2084447395987398e-01
    2.2934872919656644e+00 -5.8547633925456821e-01
    2.1522668084755159e+00 -6.7856189656103072e-01
    2.1148042285817175e+00 -7.1374642714632974e-01
    2.1289810864566183e+00 -6.9960684035504994e-01
    2.1563958361427482e+00 -6.7507169648135479e-01
    2.1244388448765750e+00 -7.0401542831604280e-01
    2.1398266546446330e+00 -6.8949969982993731e-01
    2.2031745354152461e+00 -6.3953260819692570e-01
    2.3442553127357217e+00 -5.6066772896262673e-01
    2.4000133334444453e+00 -5.3666964817299401e-01
    2.3843674069270455e+00 -5.4310590935560477e-01
    2.2877907828858444e+00 -5.8847062915341442e-01
    2.1736598127075237e+00 -6.6115485969853838e-01
    2.0570558749048753e+00 -7.8796668097050637e-01
    2.0006534064853536e+00 -9.7476279860425286e-01
    2.0357823193724789e+00 -1.2078975094943376e+00
    2.0890725544918336e+00 -1.3462912017836262e+00
    2.0114757979682243e+00 -1.1130166082090842e+00
    2.1964027974653355e+00 -6.4427815392316512e-01
    2.8266688554165338e+00 -4.1457809879442498e-01
    2.2517286013312305e+00 -6.0859220252646873e-01
    2.1355156858405233e+00 -6.9344939909654779e-01
    2.1064611291419735e+00 -7.2263319291398254e-01
    2.1369430024359160e+00 -6.9213209467785497e-01
    2.1497230917000558e+00 -6.8074564570501761e-01
    2.1816022359209142e+00 -6.5508667139736332e-01
    2.2689125699877160e+00 -5.9874081708009175e-01
    2.4284671261138229e+00 -5.2549330312296327e-01
    2.5591383132217658e+00 -4.8126017723642650e-01
    2.5997693208268280e+00 -4.6940279403817725e-01
    2.6076175832572410e+00 -4.6719815033358902e-01
    2.4770769902665384e+00 -5.0780078300464038e-01
    2.2495501349550158e+00 -6.0987803658780437e-01
    2.1191232600366283e+00 -7.0931764676226028e-01
    2.0151077466180340e+00 -8.8440839990458164e-01
    2.0000151236283319e+00 -1.0038964801101098e+00
    2.0095197002048022e+00 -1.1024448355290235e+00
    2.0007720517562220e+00 -9.7259752515927456e-01
    2.1621937503220532e+00 -6.7028006259983652e-01
    2.9112496164075088e+00 -3.9787078090902617e-01
    2.2984405697750669e+00 -5.8291006672351009e-01
    2.1681338343329464e+00 -6.6549663526052938e-01
    2.1681338343329464e+00 -6.6549663526052938e-01
    2.1725449069804421e+00 -6.6202271193265139e-01
    2.1976220080543918e+00 -6.4341488791370249e-01
    2.2727639589085444e+00 -5.9660053921349299e-01
    2.4445293254085634e+00 -5.1946248164931974e-01
    2.5828666100795359e+00 -4.7424300812849257e-01
    2.7219983415814295e+00 -4.3778806660434655e-01
    2.8134927281163948e+00 -4.1733475467059861e-01
    2.6832815729997477e+00 -4.4721359549995793e-01
    2.4733542259744956e+00 -5.0909874484641704e-01
    2.2750951313790129e+00 -5.9531655937750838e-01
    2.1148042285817175e+00 -7.1374642714632974e-01
    2.0259177626517642e+00 -8.5144821524781078e-01
    2.0122109265774690e+00 -8.9543386232697375e-01
    2.0001929291472198e+00 -9.8620623589897649e-01
    2.0268471093549429e+00 -8.4902373358534833e-01
    2.2488271384104692e+00 -6.1030669839639684e-01
    3.0353182065694129e+00 -3.7604220003609951e-01
    2.4262159077056893e+00 -5.2635406219948422e-01
    2.2395700438234170e+00 -6.1588176205143974e-01
    2.2120305262988031e+00 -6.3350096461501837e-01
    2.2044232483229980e+00 -6.3867040222246851e-01
    2.2346928402512147e+00 -6.1888576714735033e-01
    2.3137016078716295e+00 -5.7521192751253014e-01
    2.4708875077243984e+00 -5.0996372728867445e-01
    2.5889560917498362e+00 -4.7248448674434512e-01
    2.6977563996253218e+00 -4.4363105238283068e-01
    2.6726389335308989e+00 -4.4989422047770133e-01
    2.5000000000000000e+00 -5.0000000000000000e-01
    2.3111155522897242e+00 -5.7649493498782567e-01
    2.1621937503220532e+00 -6.7028006259983652e-01
    2.0709121017654524e+00 -7.6681273101481884e-01
    2.0208665189024217e+00 -8.6560449226320402e-01
    2.0105319945998090e+00 -9.0250547313146978e-01
    2.0153868739177194e+00 -8.8341124640060043e-01
    2.0916552611837478e+00 -7.3963254096858633e-01
    2.4515795836256551e+00 -5.1687469554774235e-01
    3.1054440542043293e+00 -3.6488967636900865e-01
    2.4539523820920253e+00 -5.1601165367879531e-01
    2.2910351581138180e+00 -5.8675955993915008e-01
    2.2271770159368698e+00 -6.2360956446232363e-01
    2.1686809948734007e+00 -6.6506217176117621e-01
    2.1759043219707785e+00 -6.5941989313058880e-01
    2.1982336046564468e+00 -6.4298332936201064e-01
    2.2430995018452355e+00 -6.1373694703265480e-01
    2.2438100129816427e+00 -6.1330807021498235e-01
    2.2312542805695692e+00 -6.2103244142519676e-01
    2.1850811846610529e+00 -6.5248952041961994e-01
    2.1000630684660515e+00 -7.2977191629195282e-01
    2.0349131242847225e+00 -8.2979235179165911e-01
    2.0022336746840801e+00 -9.5384187557866584e-01
    2.0012653974415824e+00 -1.0362107502308637e+00
    2.0014286899031690e+00 -1.0385191090941999e+00
    2.0050760496448352e+00 -9.3124643194615675e-01
    2.0798604927723461e+00 -7.5452716765574546e-01
    2.3119756535346196e+00 -5.7606726700570943e-01
    2.8311162146417463e+00 -4.1365753580598846e-01
    3.1345806221467489e+00 -3.6047677154687613e-01
    2.4820834441589388e+00 -5.0606923555907257e-01
    2.3332045245557675e+00 -5.6580209720477359e-01
    2.2231525424265604e+00 -6.2618796611681449e-01
    2.1477083583335408e+00 -6.8249398942599182e-01
    2.0851025200790181e+00 -7.4774093150611454e-01
    2.0812391964860977e+00 -7.5271484272913869e-01
    2.1016399262635659e+00 -7.2798471890296301e-01
    2.0946612353844967e+00 -7.3604068410038559e-01
    2.0833333333333335e+00 -7.5000000000000000e-01
    2.0431551790338833e+00 -8.1272172677125587e-01
    2.0028505270122428e+00 -9.4801591611912828e-01
    2.0195737684315720e+00 -1.1500350625790896e+00
    2.0861746047505605e+00 -1.3397876906064712e+00
    2.1008496226269551e+00 -1.3719715174433254e+00
    2.0484063483089119e+00 -1.2455448601245023e+00
    2.0026174751092269e+00 -9.5013073541293325e-01
    2.1810268269433899e+00 -6.5551972965354111e-01
    2.5533590987874177e+00 -4.8301042952061990e-01
    3.1545758765065215e+00 -3.5751859933740576e-01
    3.4798107208436195e+00 -3.1608280714329545e-01
    2.4846051823998634e+00 -5.0520305375463892e-01
    2.2861792873808349e+00 -5.8932621630261517e-01
    2.1579631534986761e+00 -6.7376405125903116e-01
    2.0883427184792160e+00 -7.4368204585843189e-01
    2.1048388641077933e+00 -7.2441537573043224e-01
    2.1226507338270353e+00 -7.0578136899748922e-01
    2.1472074691351422e+00 -6.8293126448881603e-01
    2.0898059731348098e+00 -7.4188112046285748e-01
    2.0426722969046871e+00 -8.1366446493370037e-01
    2.0146940054440705e+00 -8.8590572517165656e-01
    2.0000892034984572e+00 -9.9059973606604146e-01
    2.0235822342695475e+00 -1.1658082094097337e+00
    2.0815860409001821e+00 -1.3293239744526442e+00
    2.1222062548312177e+00 -1.4159831733623849e+00
    2.0709121017654524e+00 -1.3040993707506334e+00
    2.0021296312419516e+00 -9.5490460467845306e-01
    2.1052429990350019e+00 -7.2396967577925908e-01
    2.4364311762359372e+00 -5.2247913001503987e-01
    3.2544886899306573e+00 -3.4352936171490273e-01
    3.5288843708978570e+00 -3.1073787377072798e-01
    2.6959289354577529e+00 -4.4407940520179096e-01
    2.2495501349550158e+00 -6.0987803658780437e-01
    2.1135278652587006e+00 -7.1507692774586040e-01
    2.0942822990649459e+00 -7.3648927517117269e-01
    2.1422594975679128e+00 -6.8730825546970542e-01
    2.2466675742712403e+00 -6.1159283966272648e-01
    2.3180502808087580e+00 -5.7307354164438740e-01
    2.3094010767585034e+00 -5.7735026918962584e-01
    2.2218226619384676e+00 -6.2704772903596750e-01
    2.1257906805806570e+00 -7.0269191941416165e-01
    2.0257339709244535e+00 -8.5193367554989519e-01
    2.0003781936655494e+00 -1.0196372181600786e+00
    2.0481487444106778e+00 -1.2448192924362675e+00
    2.1152316576533536e+00 -1.4019285375446950e+00
    2.0927756800416382e+00 -1.3544909262491713e+00
    2.0067949662987772e+00 -1.0858990539861160e+00
    2.0564919335692009e+00 -7.8889315562751849e-01
    2.2445220722200809e+00 -6.1287922138676099e-01
    2.9212773780761538e+00 -3.9599537791698980e-01
    3.2357998264813626e+00 -3.4605081477647903e-01
    2.4974022990456226e+00 -5.0086790553081650e-01
    2.2510008627341098e+00 -6.0902078897306189e-01
    2.1407965256784482e+00 -6.8862288242656755e-01
    2.1736598127075237e+00 -6.6115485969853838e-01
    2.2774416949226213e+00 -5.9403270875898362e-01
    2.3633533165193801e+00 -5.5210559422022187e-01
    2.3823220546536854e+00 -5.4396353581259149e-01
    2.2821814501508544e+00 -5.9146535916409637e-01
    2.2218226619384676e+00 -6.2704772903596750e-01
    2.1253390412197479e+00 -7.0313299947019992e-01
    2.0567735105731830e+00 -7.8842984571972019e-01
    2.0168222308012238e+00 -8.7843812719342185e-01
    2.0004940101347417e+00 -9.7801929384365149e-01
    2.0026748008114401e+00 -1.0530731660933490e+00
    2.0001493994545303e+00 -1.0122978349461538e+00
    2.0004226648106105e+00 -1.0207712320158588e+00
    2.0117182385120884e+00 -8.9744985862511506e-01
    2.0677532632924085e+00 -7.7138684238936228e-01
    2.4387311210911271e+00 -5.2161748978893552e-01
    2.5664471656093308e+00 -4.7907013758040845e-01
    2.2553911898998824e+00 -6.0644963106196836e-01
    2.2238196516736317e+00 -6.2575814087371917e-01
    2.3498939817841866e+00 -5.5809982067374431e-01
    2.5504918163362600e+00 -4.8388497515490708e-01
    2.6220130162293227e+00 -4.6322229953384703e-01
    2.5920250909243205e+00 -4.7160456515428606e-01
    2.3702458101993984e+00 -5.4910694602952725e-01
    2.2395700438234170e+00 -6.1588176205143974e-01
    2.1686809948734007e+00 -6.6506217176117621e-01
    2.1457114752503692e+00 -6.8424354821872879e-01
    2.1569171214797089e+00 -6.7463574410726446e-01
    2.1427493400111706e+00 -6.8687020510358077e-01
    2.1040334481063696e+00 -7.2530708586111237e-01
    2.0486647128800892e+00 -8.0239367921136828e-01
    2.0160962652498493e+00 -8.8092206256611472e-01
    2.0117182385120884e+00 -8.9744985862511506e-01
    2.0130982374144555e+00 -8.9191435796557117e-01
    2.0329994260448911e+00 -8.3409448674119568e-01
    2.2107488393015169e+00 -6.3436209749957417e-01
    2.3128376703959805e+00 -5.7563959796522179e-01
    2.1862509883690437e+00 -6.5162425292221782e-01
    2.2165605175474705e+00 -6.3048832499128049e-01
    2.3833435502498461e+00 -5.4353473743197878e-01
    2.4783240013266798e+00 -5.0736799693826751e-01
    2.5391690537463658e+00 -4.8737939337187186e-01
    2.3732337234795859e+00 -5.4782145116987113e-01
    2.2837753095560038e+00 -5.9060967033239986e-01
    2.2198386387029223e+00 -6.2833765912174389e-01
    2.1903856881674817e+00 -6.4859753988514868e-01
    2.2082021046905296e+00 -6.3608488404557761e-01
    2.2388687471612196e+00 -6.1631081345465799e-01
    2.2381689740106814e+00 -6.1673989506072113e-01
    2.1759043219707785e+00 -6.5941989313058880e-01
    2.0924013002030857e+00 -7.3873390348836721e-01
    2.0291485229694368e+00 -8.4322394176729931e-01
    2.0187876902331596e+00 -8.7200412730904542e-01
    2.0153868739177194e+00 -8.8341124640060043e-01
    2.0259177626517642e+00 -8.5144821524781078e-01
    2.1280643583684138e+00 -7.0048785129626956e-01
    2.1927768296811769e+00 -6.4686916475594713e-01
    2.1118398111055505e+00 -7.1685229143638407e-01
    2.1467076935580161e+00 -6.8336861578263519e-01
    2.2402728674710244e+00 -6.1545274053578969e-01
    2.2790146771593145e+00 -5.9317687569396604e-01
    2.2992725230686215e+00 -5.8248237251071755e-01
    2.2673837834288699e+00 -5.9959704495119004e-01
    2.2651031122197547e+00 -6.0088152004718498e-01
    2.2423905352584952e+00 -6.1416585215691011e-01
    2.2381689740106814e+00 -6.1673989506072113e-01
    2.2902213801141715e+00 -5.8718731495705012e-01
    2.3034600290634493e+00 -5.8034395732237465e-01
    2.2576079945608218e+00 -6.0516436520866468e-01
    2.1553567161109735e+00 -6.7594381458035813e-01
    2.0843922083574284e+00 -7.4864420150170974e-01
    2.0391449720540855e+00 -8.2075585125176942e-01
    2.0371077711738028e+00 -8.2502864732539016e-01
    2.0272237061430447e+00 -8.4805525040317375e-01
    2.0622741182793152e+00 -7.7965418749392990e-01
    2.1686809948734007e+00 -6.6506217176117621e-01
    2.1186868634514897e+00 -7.0976009925624906e-01
    2.0366630588567518e+00 -8.2598001831412715e-01
    2.0366630588567518e+00 -8.2598001831412715e-01
    2.1160894872724976e+00 -7.1241679404840752e-01
    2.1654159821552450e+00 -6.6766992783120060e-01
    2.3009419633856987e+00 -5.8162699630027381e-01
    2.3813029132949333e+00 -5.4439230490048052e-01
    2.4422017130293581e+00 -5.2032464274819934e-01
    2.4551430807011814e+00 -5.1558004694724802e-01
    2.5349824707448421e+00 -4.8868828741581122e-01
    2.4563366577929266e+00 -5.1514838239823879e-01
    2.3565700825037319e+00 -5.5510317498976791e-01
    2.2094727066644300e+00 -6.3522340316602355e-01
    2.1110016546037453e+00 -7.1774056256527352e-01
    2.0741543104017932e+00 -7.6225170907265904e-01
    2.0587666459294645e+00 -7.8519072357254294e-01
    2.0712325533373335e+00 -7.6635604473481334e-01
    2.0808932206482500e+00 -7.5316774069574166e-01
    2.1595408872196513e+00 -6.7245703738145257e-01
    2.3171766645832359e+00 -5.7350122448435092e-01
    2.1257906805806570e+00 -7.0269191941416165e-01
    2.0054820252586900e+00 -9.2864959336284336e-01
    2.0001361250073630e+00 -9.8840060177447187e-01
    2.0195737684315720e+00 -8.6953870585248239e-01
    2.1024339907455851e+00 -7.2709175513284818e-01
    2.2178674970551295e+00 -6.2962793944176187e-01
    2.3623776440031174e+00 -5.5253388229184031e-01
    2.4974022990456226e+00 -5.0086790553081650e-01
    2.5391690537463658e+00 -4.8737939337187186e-01
    2.4871393708459388e+00 -5.0433659464375979e-01
    2.3517906286684442e+00 -5.5724372395949529e-01
    2.2319390068506015e+00 -6.2060304051595894e-01
    2.1032318275189543e+00 -7.2619921155723899e-01
    2.0584795384212562e+00 -7.8565302383077940e-01
    2.0463667481547363e+00 -8.0660955989765859e-01
    2.0625716183134752e+00 -7.7919372247397956e-01
    2.0840383722286622e+00 -7.4909601490663580e-01
    2.1235427469530079e+00 -7.0489821739134562e-01
    2.2430995018452355e+00 -6.1373694703265480e-01
    2.9288869296579296e+00 -3.9458615580113771e-01
    2.2445220722200809e+00 -6.1287922138676099e-01
    2.0004001200400139e+00 -1.0202040612204071e+00
    2.0248253702969596e+00 -1.1704615543299925e+00
    2.0047626371926759e+00 -1.0714342538774191e+00
    2.0144214731957750e+00 -8.8690500972647313e-01
    2.0939042767046256e+00 -7.3693797738465572e-01
    2.1659571668185968e+00 -6.6723513833384007e-01
    2.2082021046905296e+00 -6.3608488404557761e-01
    2.2326252226057521e+00 -6.2017367294604231e-01
    2.1725449069804421e+00 -6.6202271193265139e-01
    2.0985011634707558e+00 -7.3156082226549957e-01
    2.0436410380978662e+00 -8.1177963457776348e-01
    2.0174149720237629e+00 -8.7645472673476810e-01
    2.0165298523333526e+00 -8.7943107448982327e-01
    2.0205392795643680e+00 -8.6658684656871776e-01
    2.0305375971547477e+00 -8.3985291171206089e-01
    2.0573390274737164e+00 -7.8750366107188363e-01
    2.1833360176739891e+00 -6.5378784084793340e-01
    2.4922454311906574e+00 -5.0260282862344918e-01
    3.8838974185350672e+00 -2.7726712126764230e-01
    2.2926681095070043e+00 -5.8590407242956777e-01
    2.0145574100634507e+00 -8.8640526042791834e-01
    2.0360014202861798e+00 -1.2085930653198795e+00
    2.0602141085758228e+00 -1.2773327473170102e+00
    2.0476358153893743e+00 -1.2433699701225478e+00
    2.0129695187391943e+00 -1.1205530320981514e+00
    2.0008032614404705e+00 -1.0287463435906419e+00
    2.0011120378952101e+00 -9.6720415164935158e-01
    2.0032188652894249e+00 -9.4485156479484544e-01
    2.0012653974415819e+00 -9.6505464721071843e-01
    2.0002420192315364e+00 -1.0156784475431246e+00
    2.0001632916008716e+00 -1.0128604668301080e+00
    2.0006252931214217e+00 -1.0253204627247285e+00
    2.0001000075006252e+00 -1.0100505037878158e+00
    2.0013052890692888e+00 -9.6451796570422677e-01
    2.0259177626517642e+00 -8.5144821524781078e-01
    2.1199990683783918e+00 -7.0843302201644598e-01
    2.5039208800767132e+00 -4.9869757528194536e-01
    3.1785071625093613e+00 -3.5405038115729270e-01
    3.6181361349331636e+00 -3.0151134457776363e-01
    2.3286873413699736e+00 -5.6794096825634355e-01
    2.1204384834281331e+00 -7.0799084918906008e-01
    2.0242884769447338e+00 -8.5582418386385684e-01
    2.0000373467250698e+00 -1.0061298985886393e+00
    2.0325820198725570e+00 -1.1975295733749147e+00
    2.1497230917000558e+00 -1.4689774459950382e+00
    2.1939802300248763e+00 -1.5479749400731073e+00
    2.1512459340661612e+00 -1.4718107598902654e+00
    2.0939042767046256e+00 -1.3569662993199700e+00
    2.0421923857074988e+00 -1.2275845340752856e+00
    2.0228869496966944e+00 -1.1631599960755992e+00
    2.0105319945998090e+00 -1.1080265214683391e+00
    2.0006252931214217e+00 -1.0253204627247285e+00
    2.0112359560357778e+00 -8.9946941367155619e-01
    2.0686922241264902e+00 -7.7001321675819356e-01
    2.3171766645832359e+00 -5.7350122448435092e-01
    2.5226127744364608e+00 -4.9261021678578665e-01
    2.8748061224506132e+00 -4.0486852891179470e-01
    3.0711581474121799e+00 -3.7024517666024614e-01
    3.4894354440431266e+00 -3.1501847758722668e-01</input_scale>
  <output_scale>
    5.2631578947368418e-01 4.9999999999999994e-01 5.2631578947368418e-01
    4.9999999999999994e-01 5.2631578947368418e-01 4.9999999999999994e-01
    5.2631578947368418e-01 4.9999999999999994e-01 5.2631578947368418e-01
    4.9999999999999994e-01 5.2631578947368418e-01 4.9999999999999994e-01
    5.2631578947368418e-01 4.9999999999999994e-01 5.2631578947368418e-01
    4.9999999999999994e-01 5.2631578947368418e-01 4.9999999999999994e-01</output_scale>
  <inv_output_scale>
    1.8999999999999999e+00 -9.4999999999999996e-01
    1.8999999999999999e+00 -9.4999999999999996e-01
    1.8999999999999999e+00 -9.4999999999999996e-01
    1.8999999999999999e+00 -9.4999999999999996e-01
    1.8999999999999999e+00 -9.4999999999999996e-01
    1.8999999999999999e+00 -9.4999999999999996e-01
    1.8999999999999999e+00 -9.4999999999999996e-01
    1.8999999999999999e+00 -9.4999999999999996e-01
    1.8999999999999999e+00 -9.4999999999999996e-01</inv_output_scale>
  <weights>
    <_>
      -1.1204089718526842e+00 -9.3252592654078192e-01
      -1.5459599420638978e-01 -1.7870057590166161e-01
      2.2183204939722984e-01 -5.0242670741016307e-02
      -5.7156664267876822e-01 -1.2428905276898596e+00
      5.9027859874565702e-01 -5.3620363774538726e-01
      -3.4472017363586616e-01 -8.9325633534881965e-01
      3.2548827187738122e-01 2.6779118747922100e-02
      -8.8191482680129885e-02 1.1674892645737753e+00
      3.2895206585309666e-01 4.4369882068630223e-01
      9.5556789049907020e-01 5.1328617952213662e-01
      -1.7897162982354253e+00 -2.8858069544938836e-01
      -6.4795579446935106e-02 -4.5081300886104805e-02
      -4.1006751680117021e-01 -4.8460932775291876e-01
      -4.3456063732479339e-01 -5.8028260294511647e-01
      5.1625731036779920e-01 -2.2791215510160370e-01
      -2.8718666512666913e-01 -6.7652460593822339e-01
      4.4497119736439522e-01 6.5987637141356179e-02
      -3.8421121313496936e-01 1.0430807173189582e+00
      3.7350773381910451e-01 1.0866214218962551e-01
      5.6930498136196339e-01 4.7251388108087933e-01
      -2.1120829537907109e+00 -6.3872532363621415e-01
      -2.3572559699248974e-01 1.5558187769128431e-01
      -4.8911457654391494e-01 -7.1600354022710466e-01
      -9.9596768947376596e-02 -1.3506353746061753e-01
      1.4349783348558842e-01 -1.2821108727713271e-01
      4.7590669756412164e-02 -8.9720671643720426e-02
      3.2104900054986973e-01 3.5755302751541668e-01
      -2.3853474195409823e-02 8.5506955672096396e-01
      4.5699874573437488e-01 1.8783240999149234e-01
      6.6303738048043881e-01 2.2692310986922043e-01
      -2.0620112475452426e+00 -1.8516497199460427e-02
      -1.6007458608624106e-01 -4.5896141744270515e-02
      -2.7854701752592881e-01 -4.1786929976129322e-01
      -5.4694436674055924e-01 -3.9006983582180360e-01
      5.1226228322623302e-01 -4.3139010821739010e-01
      -2.8237366863782809e-01 1.8881119725889442e-01
      1.8300606896993948e-01 -4.0618292123772888e-02
      -2.7238865408354573e-02 9.5965810783896399e-01
      2.2357670590551215e-01 -2.8732558160488541e-02
      2.4941939542377492e-01 3.2218003022838476e-01
      -3.1111370475187958e+00 2.0388454002222808e-01
      4.1665230311128842e-02 3.1645031661744738e-01
      -2.5922293004832103e-01 -3.0867958095175230e-01
      -6.4168227773536890e-01 -6.5389701369768294e-02
      4.0419079128110119e-01 -8.0367110455698754e-01
      -2.6562041367584238e-01 -1.3292523488185934e-01
      2.3856669623291096e-01 3.5575759826546655e-01
      -4.5953441329432448e-01 8.1245883546848219e-01
      2.8104088139512029e-01 1.9518889705559050e-01
      -1.9655020299841008e-01 7.9874650579545084e-02
      -3.5144705461904731e+00 3.2603386994081135e-01
      -1.0177079535543175e-01 1.5377901494479629e-01
      -3.1347939107488620e-02 2.0280077417595949e-01
      -5.2390618005158339e-02 -8.7435220039159642e-02
      1.0883267803159208e-02 -4.0609431430331944e-01
      -3.5974867615345400e-02 -4.2557168812587554e-01
      2.9602902273831865e-03 2.9986593382278975e-01
      -1.8075072441419257e-01 -5.0774525273730067e-02
      6.7250190379785066e-02 4.3718702681921723e-01
      2.9395823827482220e-01 4.3122839450153515e-02
      -2.4650782014751580e+00 9.6705646083546620e-02
      4.2025943621481809e-01 3.0881281286973433e-01
      -4.0057453487520228e-01 1.9053248700975653e-01
      -4.4568417359925849e-01 1.9083435500240772e-01
      8.3752715182096327e-01 -5.1865453920217042e-01
      3.1361952123854883e-02 -4.9704813667503334e-01
      3.7034180973745651e-01 2.4550642352020202e-01
      -2.1918717897037063e-01 2.4217456898354547e-01
      3.1772647067184950e-01 4.4035482446500729e-01
      -2.8396987108526933e-01 -1.7399262106673116e-01
      -2.5205563627764400e+00 -5.2034864272314485e-01
      2.5490986028993551e-01 1.5615020510342803e-01
      -3.3745189725919233e-01 2.5025058803492173e-01
      -1.8136251541098333e-01 2.3597248899318052e-01
      3.1582227545677960e-01 -1.5076740528322483e-01
      3.1081651284162021e-01 -1.7147852314313430e-01
      3.0154098753141817e-01 7.5446495965581006e-02
      -1.3303690901343812e-01 5.4791794700257102e-01
      1.8110602965248962e-01 4.2099960301283446e-01
      -3.0192314524747699e-01 -2.9963268311834057e-01
      -3.6449452410262992e+00 -5.0349644326292020e-01
      2.5186438879810653e-02 2.7456940267831126e-01
      6.4362462087935213e-01 1.3941420637857685e-01
      -3.8614635504755485e-01 3.2276130537661663e-01
      3.3019421824394762e-01 4.1492617264510770e-02
      1.5560589120127349e-01 2.9180061414497327e-01
      3.7497844988841350e-01 2.0164264064388807e-01
      1.2603706389349620e-01 -1.0131874821966584e-02
      -3.0154317794397661e-01 -2.8372238989099501e-02
      3.9965052948912609e-02 -9.3853197808124917e-04
      -3.6068424692623178e+00 -3.1523005908012924e-01
      1.0503542791435265e+00 1.7007353520307353e-01
      4.3392567658095160e-01 -1.0212286598348722e-01
      -2.8872369857403060e-02 -4.1926305062037617e-01
      5.5326219333543725e-01 -3.0302308933263566e-01
      -1.7857528665143041e-01 9.7764036025088555e-02
      6.9030223208811255e-03 1.4514532134739180e-01
      -4.1393581331538372e-02 8.2515860859005585e-02
      -2.9917922261135504e-01 -1.0434237528127559e-01
      1.9063265825133929e-01 2.4915171992492068e-02
      -3.4540701385987527e+00 -2.0255313246872719e-01
      2.1706316459094011e-01 2.9364469006885840e-01
      2.8050413370318866e-01 -6.4202610541928204e-02
      -2.8511967111015402e-01 -4.0425187941553059e-01
      1.3251790080080001e-02 9.1754435121503178e-02
      2.4030765020996014e-01 -1.5673856432943700e-01
      3.3085610579321878e-01 4.9156073572651567e-02
      -1.8429755122728836e-01 5.9151077488058934e-01
      -1.4636714096109464e-02 -1.1002352959140331e-01
      -2.3079772353064532e-01 -2.1534529925858173e-01
      -2.8359693497008243e+00 4.4025679500959786e-01
      -1.1985325488218364e-01 2.8683029444026242e-01
      8.4519139565929671e-02 4.3305729542058041e-01
      -2.3399359663064409e-01 -3.1465254006756366e-01
      -5.7551548755733602e-02 -3.9295511266019281e-02
      -2.3109437997815790e-01 -3.4167162866002820e-01
      4.9114011294621907e-01 1.0612402850916568e-01
      -2.5347674403825743e-01 -5.4991188534532116e-02
      2.1776329037703143e-01 5.2079337685346760e-01
      -3.8085354813218447e-01 -2.7011692311149732e-01
      -1.4830772879206708e+00 5.2029258594873895e-01
      -1.5422619347220273e-01 -1.1166354876713448e-01
      -8.3879762836190225e-03 2.1650108407532956e-01
      -1.7387488536380108e-01 2.5632186557845454e-01
      -4.0413228718289296e-01 -1.2013270708414903e-01
      -1.0745832181016796e-01 -4.8934330280591444e-02
      1.3954422345746612e-01 7.5939782912925510e-02
      -2.9950971169417595e-01 -4.9212882231103439e-01
      -6.5619160893159431e-02 2.6033700231796669e-01
      -1.4631399287271948e-01 -5.3515028129720366e-01
      1.5087577820896545e+00 5.5036207817273441e-01
      3.7195456133388088e-01 3.9998935845174423e-02
      -3.6786477718127175e-01 4.2797362089060165e-01
      -2.3042021673337343e-01 2.8297132616501873e-02
      3.2958428368661463e-01 4.4816936372034634e-02
      4.0245775880063733e-01 -4.4174148263997592e-01
      2.1837245039461572e-01 1.5262459899134945e-01
      -6.4822147225088167e-02 2.1142042267258107e-01
      3.2638635128858917e-01 2.2901456961795130e-01
      -2.9704981208186843e-01 -1.1441754500111698e-01
      8.8492058899795945e-01 -7.4635915350446863e-02
      2.3265097730569051e-01 8.2781892253974018e-02
      3.6776114141352123e-01 5.3571729522222333e-01
      -3.1825442683079674e-01 -5.5372062687225065e-01
      1.7214958424232490e-01 -5.7283974248846431e-02
      -3.7085168196628537e-01 -5.6658259300598812e-01
      9.1078747187455761e-02 3.3253529277381490e-02
      4.9153200025354254e-02 2.6852056522298234e-01
      -1.7073543372730574e-01 2.2143587964317837e-01
      -3.0020349195833379e-01 -3.1054410667628606e-02
      8.9272021043323935e-01 -6.9746039940082516e-01
      2.5594092551261410e-01 3.6128608143561203e-01
      -2.0003635873377579e-01 -5.3566800068732312e-01
      -1.2906596659433800e-01 -3.4626443004748214e-01
      2.6154336599149658e-01 -3.7610374909556804e-01
      -2.8706902336605117e-01 -4.1496203601018251e-02
      -1.0079291909723377e-01 6.6461276280491255e-02
      6.6607975923689750e-02 4.0185811299783208e-01
      -6.5153519331428739e-02 -2.6495337333454316e-01
      3.0793403638731481e-01 -7.5300763146352687e-02
      1.4914658348983813e-02 -6.7912920648703778e-01
      1.0037921083622355e-01 -2.4687249696293428e-01
      -5.2102033906641299e-01 -1.3075977242670705e-01
      1.4460819908584338e-01 3.3730605241404872e-02
      7.6321016320187438e-02 -2.1161402455128731e-01
      7.2721577544677021e-02 7.2035544770036564e-01
      9.8618519634571578e-02 -2.3326037786500847e-01
      3.7344667235194035e-01 2.2814222805437359e-01
      1.0365464533465224e-01 -2.4396226485190059e-01
      -4.4219745648406097e-02 6.2253486267839095e-02
      -6.4000014607618549e-01 -3.7076084298144096e-01
      -6.3047173792544420e-01 -4.0948336402787229e-02
      5.7666263834532328e-01 1.6697729551462846e-02
      5.0630962288237791e-01 -7.1200002268929186e-01
      5.5474582182244037e-01 4.9756737483203396e-02
      1.8207408089929097e-01 2.4529560376864581e-01
      -5.3053529316570625e-01 -1.8817512810235656e-01
      4.5118489156737790e-01 2.3628425763123709e-01
      -1.7830576529152173e-01 -4.9222876923076908e-01
      1.8555358806353481e-01 4.2641894729716456e-01
      -1.2283971920056103e+00 -8.6249569354199318e-01
      -3.6167475434766438e-01 -5.1261074761149072e-01
      4.8825487280816637e-01 -3.8930189528888520e-01
      4.0333435848067756e-01 -6.2851547515167949e-01
      4.2767128747731774e-02 1.1845291889948042e-01
      7.5735363665138611e-02 5.2990716371253810e-01
      -6.4124333960925572e-01 -4.3079311404105125e-01
      -2.8882222332245544e-01 -5.6293345830102808e-02
      -3.5064876280414443e-02 -2.1947880140988882e-01
      3.2131589208486738e-01 7.1596529025757438e-01
      6.1138200752122999e-02 -1.3003302884174319e+00
      -8.1355741348065092e-01 -6.7651559308323950e-02
      -2.9557245215117867e-01 -1.0050282818807195e+00
      8.5974374188764760e-02 -6.8899354243851874e-01
      1.7200656665575589e+00 -8.9607069653022037e-02
      -1.4906773822761227e-01 2.4825198101086945e-01
      -3.8116674165213693e-01 -2.6533304133233082e-01
      7.7057550083699744e-01 1.0770302646860757e+00
      2.2535804249721705e-01 -9.4452890648632759e-01
      1.4636315064723542e+00 1.2956831511606850e+00
      -2.6926746828462580e+00 -6.9886854091471717e-01
      -1.0544073693690660e-01 3.0515747721638575e-01
      3.3868444263562247e-01 8.6774435628804644e-03
      -1.0926927286937133e-02 4.8022735708204846e-02
      1.0437736760049243e+00 8.2843898854900330e-02
      -2.7012596420673046e-01 -1.3712030016867377e-01
      1.2787936200627123e-01 9.9054223175938455e-02
      -2.6791828613628987e-01 7.7243574033256279e-01
      2.1588342921941336e-01 -1.3341795270552517e-01
      -1.3310106505135158e-01 3.5665725084208749e-01
      -3.3293985192363502e+00 -3.4788507329212259e-01
      1.7682875093312572e-01 5.1608316071093607e-01
      -1.0841559897327036e-01 3.8394191496695224e-01
      -1.1982978168733330e-01 6.9934015519564130e-02
      1.5666991122774887e-01 -2.8565936242305229e-01
      4.1714458579240908e-02 -4.4288629383829997e-01
      7.0240191752988651e-03 9.9360032521858391e-02
      -2.2364474037768178e-01 -8.7268365837514253e-02
      1.2321247143553801e-01 4.6681434836668045e-01
      -1.5215928484376512e-01 -2.4852571997187015e-01
      -2.4612622076714028e+00 1.0587349748599230e-01
      1.2407618610610298e-01 1.1486777567827240e-01
      6.9098145924343421e-02 2.7197848185421147e-01
      -1.0228391212202360e-01 -3.0156210141032030e-01
      1.1320726828844953e-01 -2.8740720693124344e-01
      -1.7214201516110711e-01 -5.0523995115335008e-01
      1.5790233995221076e-01 -4.9575389942645770e-03
      4.0941808384810555e-02 -1.5501596884104673e-02
      2.3431455972391355e-01 3.4849932332116634e-01
      -1.7463251642019703e-01 5.5740774901614769e-02
      -3.0873369737948320e+00 -1.1333404546435730e-01
      3.0624070041328449e-01 -8.7720306726590813e-02
      -4.4362063460761192e-01 -2.7415302859857105e-01
      -3.1407734615918681e-01 -1.5202345320453539e-01
      -1.3756523728817421e-01 -1.1443030331778896e-01
      -1.7450041917047909e-01 7.9887884589710995e-02
      -7.5916927968476516e-02 1.0050488096663801e-01
      -4.7669457684241279e-01 -1.0429172591004175e-01
      2.3343315532262085e-01 2.8724670426483456e-01
      -5.7942111901420651e-02 -1.7408300561685999e-01
      -4.7265414062112745e+00 -7.3983445362382050e-01
      -4.1150467781490124e-01 2.6344848459774756e-01
      -2.5034154441014483e-01 -5.0798357332907851e-01
      -2.3730581308694498e-01 6.1035447851387786e-02
      2.1574783978011006e-01 -5.1595460619426478e-02
      2.5140957296203713e-02 -3.9764363621137999e-01
      2.8405429615335648e-01 4.1201250471559814e-01
      -7.3458814788685023e-01 5.6656044449448495e-01
      1.5977605890764454e-01 5.0994458545245502e-01
      3.4463438312764677e-01 -3.6332249643883346e-01
      -2.9459671501632481e+00 -3.1718056667135386e-01
      -1.4249381007713038e-01 1.9122443060743657e-01
      -6.0604923289349411e-01 -4.3987818868440887e-01
      -4.7369332303984674e-01 2.4149493962138138e-01
      4.5370050103157372e-01 -3.5311211104545076e-01
      -1.1376265911869714e-01 -1.1030705218556704e-01
      5.0179084117450712e-01 9.7519643816129278e-02
      -3.6957744238478707e-01 5.4481527375170657e-01
      2.1627016485202713e-01 3.8121908075989241e-01
      2.3086002126570290e-01 -1.7347878169462283e-01
      -3.2348823233319628e+00 -5.0609867623295939e-02
      5.3040699636349775e-01 -1.1629070592788993e-01
      -2.1325625126414846e-01 -2.8940998860860701e-01
      9.4452921338054802e-02 -4.2597453984708511e-01
      5.3225975995904096e-01 -3.7104498692203064e-01
      -2.3867346204040957e-01 -1.0018936463753957e-01
      4.5143297020148582e-01 -1.2520593725195789e-01
      -2.2916106045865506e-01 7.9263908791110685e-02
      2.3599198298987012e-01 4.1008265292837254e-01
      1.4762726400832479e-01 1.1664181976924572e-01
      -5.3874168792955874e+00 -2.3552504199392882e-01
      7.6750787248751479e-02 -1.2273388168557270e-01
      5.2150064004052110e-01 7.0501494479555296e-02
      -5.3586803564616425e-01 -2.4810452739354757e-01
      5.8622442293410337e-01 -1.7728163936648211e-01
      -2.3101464985405143e-01 -1.8109735830020221e-01
      4.8327636989861054e-02 1.7763863540163283e-01
      -2.0194250518227949e-01 -2.1153862583252592e-01
      1.9302126054945919e-02 1.9873041445997822e-01
      2.9834778940908491e-01 2.0270240955267288e-01
      -4.9039007110881094e+00 -3.2715494180402582e-01
      1.2273072258234090e-01 8.3800183499243355e-02
      6.0441891067921116e-01 -8.4382521508293382e-02
      -1.2947329258363299e-01 -4.8973511024415917e-01
      9.2700576738511578e-02 -2.2299294116864157e-01
      -4.7561586214600035e-02 -1.8912910441911418e-01
      1.8203019743049137e-01 1.3461096981675005e-01
      3.2829472218868355e-01 3.1797147284932753e-01
      -3.1561606410312082e-02 1.9717571794563063e-01
      2.1331867766538670e-01 6.3307744930197396e-01
      -4.4141360449823202e+00 -4.1410986910231207e-01
      -2.3362997883036510e-01 5.1589061808277470e-01
      -6.0017109546508629e-01 -3.5132035362511571e-01
      -1.4169823966364267e-01 -1.6792323615833910e-01
      7.6643530734755549e-01 -5.5797351439752796e-01
      7.2411489698737411e-02 -2.6592239100753163e-02
      6.0761491610152718e-01 5.6077988057428363e-02
      -1.1716508073783026e-01 1.6165233881322671e-01
      4.9777730229941070e-01 -1.4325228085336986e-01
      2.2046341093260632e-01 3.3744917904567201e-01
      -4.9390065278200597e+00 -8.1686807975056674e-01
      3.0967795238517209e-01 1.6305880286864960e-01
      3.6566475219495465e-02 -2.2310664768542118e-01
      -4.7370286251461258e-01 -1.7548640871515256e-01
      4.7291199542525797e-01 -4.4685221266713432e-01
      -1.6202175303513616e-01 1.9910993212856334e-01
      2.5424719211393915e-01 2.2299257490492763e-01
      -3.5696042647447572e-02 4.8397725342240827e-01
      1.3465330864581321e-01 2.3474394238325383e-02
      2.1643642969372645e-01 4.9585869117112068e-02
      -1.8492144355577071e+00 -4.1331574607324134e-01
      1.6514595782443953e-01 3.2319875322705416e-01
      6.8043475644830778e-02 8.0748983829160209e-02
      -5.1310379262470807e-01 -4.6235432219081307e-01
      3.7974263146131682e-01 -2.8400233597638569e-01
      2.6314808178665983e-01 -4.2819846918633497e-01
      3.7468413166336378e-01 -1.6748396633509388e-01
      1.2161973152753082e-02 6.3621207537451441e-01
      8.7874535796188577e-02 -1.5577796905440032e-02
      2.9331646234246750e-01 1.9877165709312980e-01
      1.2908623888458017e+00 4.0523798603095429e-01
      4.0169835404869064e-01 -1.3395892472436621e-01
      -1.5125325894506289e-01 2.1560010420959727e-01
      -1.8749194104863823e-01 -6.0532311588447400e-02
      -2.7302213463800745e-01 -9.6733119189454611e-02
      -2.1120795166018164e-01 -8.9105749308012919e-02
      -1.7385099121077255e-01 -6.3039266574081432e-02
      6.6418149468869606e-02 1.0061222655950655e-01
      -9.1170566515174981e-02 2.2703544779304269e-01
      1.1778083887522237e-01 2.8110156096322247e-01
      3.2644638193983759e+00 -8.1207281219040930e-02
      -3.0551391606296585e-01 -3.0269068898596269e-01
      3.7788646000504203e-02 9.8705200496506565e-02
      1.6701447597968674e-01 -1.3903944218911055e-01
      -1.5315446016586071e-01 -6.9018836342154425e-03
      2.7173454137842545e-01 2.8255759223796278e-01
      -2.1090783030574034e-01 1.9309118343954526e-01
      9.6895265016177179e-02 6.0913669189153231e-03
      1.2612541021246246e-01 1.3341906883767929e-01
      -8.8950592956995478e-02 -2.2526673198958444e-01
      3.0720593575853310e+00 -4.8984644227741364e-01
      -3.3572407165697302e-02 1.5738611534107289e-01
      -6.8288097879875498e-01 -4.7640067449458634e-01
      2.1295009314589652e-01 -3.3745489704172821e-01
      -3.5179172546086990e-01 2.9413822874351764e-01
      -4.7612380579422553e-03 4.1338011450329909e-01
      -2.5796886180885042e-01 -1.1135947301615944e-01
      -8.4435061601203676e-02 -4.1871127704053912e-01
      6.0903390935061179e-03 1.2524918516313460e-02
      -8.3156707308999989e-02 -1.8209589743918569e-01
      2.3745467349509060e+00 -9.4367188492270027e-01
      1.3405943779657872e-01 4.4120073548744876e-01
      4.9869186363503459e-02 -1.4383913132709961e-01
      -2.6280545918808279e-01 -3.2984131407919481e-01
      -2.3005928993929592e-01 2.2687979398981672e-01
      -8.6827620465652774e-02 3.2700670220246239e-02
      1.0285175205770392e-01 1.0777680408612664e-01
      9.3655627406025926e-02 1.8141921095848490e-01
      -2.5080378304837697e-01 3.7687662716478465e-01
      4.8241377619688236e-01 3.1066723314075029e-01
      1.4319105681107751e+00 -2.4008627928047319e-01
      -5.7218684110952878e-01 1.5666697485193692e-01
      1.7260625444048450e-01 2.3395852503520329e-01
      -3.5943452717742358e-01 1.3659936554912702e-01
      -6.2596445824847344e-02 -2.7659336985770017e-01
      2.1337068086369548e-01 3.8878689933339006e-01
      1.6569193338224861e-01 7.9452285752956320e-02
      1.9378353320268185e-01 3.5100869072291713e-01
      -6.0917689658275376e-02 -1.5735964472772185e-01
      1.2750109971568079e-02 7.7074886055216577e-02
      5.6356273479650235e-02 -1.1431942937870422e-01
      -2.4572309906104972e-01 -1.1654299073333391e-01
      2.8370361231881230e-02 -2.6607875971310824e-01
      2.4377964150869041e-01 -1.0618457727693197e-01
      1.3663042202981046e-01 -2.6796642840776869e-01
      -9.6122170111427638e-02 8.6155684432393354e-01
      -3.2443509934013964e-01 -2.1286166703560347e-01
      1.4142886957475190e-01 1.4093059652435747e-01
      -2.8297112368961125e-01 -3.8749611500029957e-01
      4.0724391742998856e-01 2.8570642519648082e-01
      -2.2161044122582254e+00 -1.0052049192962651e+00
      -3.1529041454791712e-01 1.9131591105045895e-01
      -1.9944783159262772e-01 -6.5459854203682843e-01
      3.6508022556508612e-01 -5.8285463365937418e-01
      1.8368886616435906e-01 -5.7779610605428300e-01
      1.3604219467901272e-02 -4.0893784896792318e-01
      -3.2474574203338191e-01 6.5097658607085565e-02
      3.2951273381903234e-01 4.6588310109959780e-01
      -1.3639194689858936e-01 -3.7569327148275145e-01
      7.6008798101309272e-01 3.3040758466454734e-01
      -8.9050083042741468e-01 -5.5602611360115872e-01
      2.9511526665027498e-02 1.4384920447861016e-01
      7.6306107486835237e-02 -7.8222607978347625e-01
      -3.6897689130493427e-01 -5.0379730433346226e-01
      5.8809511860788677e-01 -2.2194418180304887e-01
      -4.1972019290386997e-01 -2.1070118593499373e-02
      2.0198657381637358e-01 -1.9184428131519918e-01
      1.1404896939463607e-01 2.4212345826110374e-01
      -2.5537833687366662e-01 -4.9616991084658735e-01
      2.5936155168725145e-01 4.3813926860182234e-01
      -2.8985716168369766e+00 3.9364047925619555e-01
      -4.8505907171048535e-01 1.8034581820435019e-01
      -2.5576443466798054e-01 -1.1564819393252869e-01
      2.9512919850582375e-01 -1.6992795136255864e-01
      1.1489369776642283e-01 2.5290597990704500e-01
      -1.6515247847404005e-01 5.5593876662322558e-02
      1.3923686222031187e-01 1.8791366520839053e-01
      -7.2365220765231109e-01 -2.0598148651263562e-01
      1.3881929018489206e-01 1.6673538460201365e-01
      2.9461190269409798e-01 4.9834175068563594e-02
      -2.2912494441848041e+00 -7.2039384046719973e-02
      -4.7497525241441468e-01 5.5005886053992514e-03
      9.9137468895504385e-02 1.5103735245145311e-01
      -1.9459282425490165e-01 -3.0320214886288954e-01
      3.7632722579884897e-01 -1.9363174132761499e-01
      -1.5212302955285784e-01 -2.4485871355238020e-01
      -4.4817959699773133e-02 -7.9980412297208828e-02
      2.0217788668298198e-01 1.3644299112755082e-01
      1.5189917600089992e-01 1.1954982841749885e-01
      2.1366155985000614e-02 2.2839473767775081e-01
      -1.8511642588553545e+00 -4.7979318445152730e-01
      4.9647440534588588e-01 -9.2153561921728785e-02
      -2.9070507350993430e-01 1.2498022557637758e-01
      1.1101895952145510e-01 -1.0918894135741962e-01
      9.9401421495573811e-03 1.0348426029859821e-01
      1.7325231527215312e-01 1.5996932286333587e-01
      8.9088745705180813e-03 -5.2393212446732854e-02
      -4.5176797978067545e-01 -9.6948586026630548e-02
      -6.3070588896959101e-02 3.3305904721476148e-01
      -5.3370259548594068e-01 -3.1255824056357356e-01
      -3.3682649996698748e+00 1.6084509246469623e-02
      5.6302920616514554e-02 -1.8304887525079139e-01
      -1.7781620414235384e-02 -8.6447576897527634e-02
      -8.6470087780038993e-02 -4.6119886665630029e-02
      4.2033549814502152e-01 -1.0744026034682075e-01
      -3.1644026091847921e-01 -3.2065912046728401e-01
      1.2578618984433307e-01 1.3377563581455221e-01
      -1.4228189917314915e-01 -3.4320468940274290e-01
      1.6944335606781466e-01 -1.2196748425597281e-01
      8.6565228167925848e-02 2.2130493502713638e-01
      -2.2929343583149731e+00 -3.4573542101214705e-01
      5.2949607829944220e-02 2.1013922815428512e-01
      -3.0503489286917523e-01 6.3265087852333882e-02
      -1.9595782046765239e-01 -9.8250122132542611e-02
      1.3738927206700791e-01 -7.6108769257574885e-02
      -1.7572206033162505e-01 8.4080587656910566e-02
      2.5942279712463778e-01 4.0336729460404008e-02
      -2.3717427094059138e-02 -1.0219101037539555e-01
      3.1889571211189183e-02 4.9141091178207939e-02
      1.2797316404275955e-01 3.6802595832873285e-02
      -3.4749773737455079e+00 -2.2882281688697040e-01
      -3.6601581213485895e-01 3.1749505866938549e-01
      2.1999016289344575e-01 1.9277423321398884e-01
      2.1007942842606436e-01 -4.4271943709050787e-01
      7.7651960166117495e-01 -6.8484789601580887e-02
      -7.6356689897764729e-02 -7.6761767039330442e-01
      2.5526737927780924e-01 9.2065957416880683e-03
      -3.8888200861760802e-01 2.7841436632457854e-02
      3.4259633536758249e-01 -5.4275529963029728e-02
      -2.7412510154983211e-01 -1.6271152357607269e-01
      -4.1736566638114674e+00 -3.9880256391932940e-02
      6.6592474533034851e-02 7.7976721332222942e-02
      9.0284168092574016e-02 1.0238891871275109e-01
      -2.2710469196643329e-01 -3.8096998420609712e-01
      6.5452377818900076e-01 -3.0859181982473738e-01
      -7.7124318627241714e-02 -4.4312916077449932e-01
      -4.3986062096200651e-01 -1.2912872676615603e-01
      -1.2798548502126816e-01 6.0384603363928024e-01
      1.4284855416144212e-03 2.7561078271198075e-01
      -3.3532811249926914e-01 -2.8125222004918887e-02
      -4.7694000468422821e+00 -4.2113816672684651e-01
      2.2506341887003464e-01 -3.4628261997248611e-02
      -7.7393365931059561e-03 -7.4944363104457637e-02
      -1.2282916041845988e-01 -5.7474006323144040e-02
      4.0010312468849402e-01 -1.3119310576115031e-01
      -7.3707161608120908e-02 6.9607542959030780e-02
      -2.6434761238940929e-01 -5.9452529805356660e-02
      -2.0012698051138919e-01 4.1027593747662500e-01
      -6.4937636009520697e-02 -7.5984511233940247e-02
      2.9396454303886621e-01 -1.7847255424789838e-02
      -4.1950988823781117e+00 2.5782712126235319e-01
      -2.0169084823607894e-02 4.1233064894027122e-01
      2.7867969979822943e-01 4.4573779818117959e-01
      -1.1139371596524962e-01 -1.0057225976595595e-01
      3.0603340150363512e-01 1.1512207538840283e-01
      -9.1018255205469589e-03 -2.1057293854628709e-01
      3.1623984723774551e-01 2.0437708645771985e-01
      4.7334058388082176e-02 9.9792166286263667e-02
      2.0141927797023221e-01 9.1518011370258681e-02
      -6.5502754528408577e-02 -3.0808172204279415e-02
      -4.5394907074041715e+00 -2.2494963404893376e-01
      -3.6719541900692215e-01 2.9347534292711508e-01
      2.2800137687206851e-01 1.8418933227572840e-01
      1.7052987090506627e-01 -2.8581731953524409e-01
      2.3118022159390517e-01 2.8457520825941079e-01
      -4.0101192555498155e-02 5.3028345566905866e-01
      1.1624111525068455e-01 1.3225313892932358e-01
      2.3814816569132591e-01 -1.2850714396400842e-01
      1.2365588682833456e-01 -3.3056121792871279e-01
      1.6011046273273641e-01 -1.0922862343632282e-01
      3.3194717611814535e-02 -6.2174169208048546e-01
      4.0134463425045547e-01 1.9950099165901145e-01
      3.3197286772891033e-01 2.2738712878564837e-01
      -2.7468181936843400e-01 -6.0887947063193881e-01
      5.6866602493998919e-01 2.3524967706286898e-02
      -1.7326788650206640e-01 2.7538222701048783e-02
      -1.7766080482294801e-02 -1.6337632358532839e-01
      2.4569448631428700e-01 1.9340917832478224e-01
      3.9834762798182835e-02 -7.7406654824471371e-02
      4.4699655572175584e-01 1.9995494073815628e-01
      1.7885475487550908e+00 -7.6620458762009613e-01
      1.6166734316836689e-01 -3.4094165642117163e-01
      -3.6772661706479096e-02 -3.1075273613435889e-01
      3.1652974466037448e-01 -9.1552534504778260e-01
      6.1630212235681645e-02 9.0268900354372461e-02
      -9.3978595880822871e-02 1.4284920358016273e-01
      -2.5945510222039547e-01 -8.1880364406272152e-02
      2.8181399962378190e-01 4.8996074909204124e-01
      1.2734261007487068e-02 -1.6548037909189656e-01
      -6.0478769429714370e-02 2.6039899359575608e-01
      3.1839378952063013e+00 -2.0113711303541781e-01
      3.5514087041038667e-01 1.2205136951586107e-02
      3.8123486459237216e-01 1.6071818127450019e-01
      -5.0368775177874880e-01 -4.6759375663396524e-01
      1.2701762443065465e-01 -2.0967260162255028e-01
      1.0767565416083971e-01 -7.3531749507190303e-01
      1.3070241979738539e-01 1.9987529651415775e-01
      3.5360275364957433e-01 4.4724435901426390e-01
      1.9647082332842314e-01 9.8570395186662746e-02
      -7.4786353348183177e-01 4.9504069988904123e-02
      3.3415354603500003e+00 -9.4769569637354245e-01
      -1.7125341675909447e-01 7.4783366370086164e-03
      3.8140278669480193e-02 2.2643883964656950e-01
      -1.6591847006892582e-01 -2.9713505286441549e-01
      -6.2044474350642442e-01 2.2597221657209954e-01
      -1.7363279953343078e-01 6.1255398554719542e-01
      -1.2103121153273676e-02 1.0644470286877149e-01
      3.4248125916510264e-01 8.5035065985728048e-02
      -1.2367791474528446e-01 3.8613119702217885e-01
      1.5847577741161267e-01 -1.8784530911101549e-01
      4.1548881397863422e+00 -9.0395597496446017e-02
      -8.3233841289397009e-02 2.3518345467012577e-01
      -4.9305565037499682e-01 -7.0807272199846472e-01
      3.4169641422933472e-01 -4.1464251601330304e-01
      -3.6496892664875702e-01 -3.4981011730008577e-01
      -4.9744904063659320e-02 3.0475522533184946e-01
      -2.6795336819237153e-01 -4.6784327568640346e-04
      -3.4248870151928590e-01 -2.5124705746306275e-01
      -8.8308591890580157e-02 -8.9323945668491264e-02
      6.2890221782356898e-02 2.6402807206455003e-01
      5.3376042983323071e+00 8.8040871817929883e-02
      1.7132355191709428e-01 1.8206000137395936e-01
      2.0831643080639811e-01 3.4724254875445515e-01
      -1.4560571495271832e-01 -1.3282475206953770e-01
      2.1306822569054717e-01 -2.4868422208082327e-02
      -1.5922609406148308e-01 6.9006682738495917e-01
      -1.2217650103553000e-01 1.0764695343410718e-01
      1.0559785408130309e-01 2.0985382136462991e-01
      -2.0743305064231013e-02 1.8280832559077062e-01
      4.2071411446207040e-02 1.2223418777494249e-01
      5.1131995698922417e+00 5.4477307285094256e-01
      3.2074086118437944e-01 -1.4376327377418074e-01
      2.0181585404162189e-01 -2.3286124685435786e-01
      1.0406444858654611e-01 3.3997812028428437e-01
      -3.3276513058840301e-01 -7.4992713687192417e-02
      2.3707471796114196e-02 4.5953683579439519e-01
      -7.8690551597542069e-02 8.6173876052920179e-02
      -4.5499699133498589e-01 -5.3961780020061390e-01
      -3.3424269575031740e-01 -1.8872361720089093e-01
      3.4259730302581677e-02 -3.2691258904722714e-01
      3.9424674683881658e+00 -5.2043966385715057e-01
      1.1660711064602050e-02 3.0558439644389440e-01
      -3.1696033652657746e-01 -4.5585760720333768e-01
      -1.0882393845308036e-03 1.4745500116130383e-01
      8.0948823792494615e-02 2.5410689787796398e-01
      -3.9192328419381123e-01 -2.1513928245011590e-01
      -1.3982810676615418e-01 2.5245799464531704e-02
      8.5658128129591324e-02 -1.1044995313803302e-01
      1.9667078502708768e-01 4.8718733828920341e-01
      4.9086227047576203e-01 8.3091832834464432e-02
      2.8931867206751298e+00 2.8186173278687322e-02
      -5.0897204262159113e-01 5.5182092492176305e-01
      -2.7641649467169849e-01 -4.6457671024367914e-01
      1.5467028253500012e-02 2.6644517396466944e-01
      8.5418159264681173e-02 -1.8881064976647030e-01
      2.3228414258291960e-01 -9.1045294672222343e-01
      5.9872081328199811e-01 1.2669616764248876e-01
      -3.5962467439381862e-02 1.0814131954081510e-01
      4.5406683299241862e-01 4.8755190167104023e-01
      4.7481437142541666e-01 -4.4910457743657117e-01
      1.5921678084513807e-01 4.7075363262128334e-01
      -2.9997600737509156e-01 3.6193431241919767e-02
      -4.6988747020186428e-01 -1.1906067810455824e-01
      3.6097131928606202e-01 4.5010772975259905e-01
      -9.3405268287724261e-02 1.0343846974275916e-01
      -1.3523027272810501e-01 -2.7047547007466172e-01
      -8.3037757999817163e-02 6.8229359229509609e-02
      -1.0693088129749215e+00 3.2022958627767650e-01
      7.9212366416497937e-01 6.2213648547378475e-01
      -3.4640327571892904e-01 -8.0947539294602078e-01
      -1.5539629155789161e+00 1.2481181878843714e-01
      -1.7288569504488305e-01 2.4876996593959713e-01
      -9.5968335505981758e-02 -8.4875185663851969e-04
      -4.3494818001141372e-01 -9.9358716579204573e-02
      1.8035887471485637e-01 -7.3891938571683143e-03
      -8.1415944087198669e-02 -3.2641737986778196e-01
      4.3198777150152518e-01 2.8135349467013807e-02
      -3.7392042672189069e-01 3.9196570302434924e-01
      -2.0420705196641897e-01 8.0862557522305395e-02
      5.4942740572877895e-02 -5.3255593910853972e-02
      -5.2574348748159166e-02 1.2164853870312674e-02
      6.6581604274045525e-02 7.8240938466018865e-03
      1.8744887190936599e-01 4.8561457544309244e-01
      -3.5311472780886882e-01 3.5243337091545377e-04
      -2.2616278869576772e-02 3.2254597839989019e-01
      -4.0461757421433132e-02 -5.0642570352647931e-01
      4.9160129854212775e-01 -1.3023008180757059e-01
      -3.3509188447344967e-01 -5.9025657887246633e-02
      -6.9596670477639261e-02 2.5306470173379186e-01
      -3.5011559268561598e-01 -2.6878415290414215e-01
      -2.2937866921302095e+00 6.8438417503940441e-01
      1.6159977619922561e-01 2.3325792318123276e-02
      -2.3439514340136680e-01 -2.8858043956333462e-01
      2.3666924449443443e-02 4.7756814045915752e-02
      -2.2344619580331529e-01 9.4939131919447944e-02
      7.3471809373047911e-02 -4.9055157354059753e-01
      2.1251817333271542e-01 1.9570644989068725e-01
      -3.9162040657379005e-01 -4.8904461936909305e-01
      2.0131377594361989e-02 3.1439389190555285e-02
      -1.7428342331402349e-01 -4.2476056319085326e-01
      -2.6715039034258319e+00 -3.1414382479208325e-01
      2.9224696615471857e-01 8.6156888203583176e-03
      -5.5296766034472322e-01 3.5893241208296088e-02
      -4.0387300148683941e-01 -4.6812123643680359e-01
      3.1212386351793764e-01 3.9253908084270053e-02
      -2.5968583916169991e-01 1.3766574335526618e-01
      3.9894300184459747e-01 -2.6016276569273130e-02
      -4.9724270166567025e-01 1.2341730990285975e-01
      2.2007624370636740e-02 -8.0311964066092936e-02
      -1.0539364055940763e-01 9.6955514196417347e-02
      -4.1676615713510703e+00 5.0764306312163210e-01
      8.0922621466014436e-02 4.9998673051959658e-01
      1.3886029263199035e-01 -7.3401619928506384e-02
      -4.3971331009616491e-02 -5.1706188518745022e-01
      9.7908561085825227e-02 7.6559658149548376e-02
      -1.0257413525828715e-01 -5.3155629263993656e-02
      2.6552662555899209e-01 1.8918248517249037e-01
      -7.4044169449107383e-02 -1.4975161860545530e-01
      -1.6035532408092698e-01 -2.6865465122797302e-02
      -9.5792474838550051e-02 -1.8909865014098920e-01
      -3.5540295095312717e+00 -2.9226529230318439e-02
      4.8830896555153530e-01 2.8444511280510304e-01
      -2.4871504938475603e-01 -1.4202792607464326e-01
      -2.2354941899610820e-01 -5.4068807871407408e-02
      3.1167091831941901e-01 1.9275336054901229e-01
      -1.2873283454599890e-01 -3.3545734580109010e-02
      1.6578246558630824e-01 1.0578717690672326e-01
      -1.3757381522287643e-01 6.4931163221300303e-01
      -4.6226074209926825e-02 -7.2176196733541205e-03
      1.8041530900729418e-02 -8.4330765267636554e-02
      -3.0953807992220113e+00 -4.1533906114956565e-01
      -2.8529026712715171e-02 -2.0038018618597866e-01
      -3.8399281718100059e-02 -1.1507311151138716e-01
      5.9563388388639164e-02 -1.0401585121887803e-01
      -1.4370469787186677e-01 2.8916987638473124e-01
      1.2796913478062019e-01 6.9652123463109361e-01
      9.1423502514368968e-02 -1.4646850859059529e-01
      -4.3339480576510547e-01 5.3775647694722588e-02
      -1.6289090602674342e-01 1.0213285362124459e-01
      -2.9701448355306557e-02 2.3924280261740472e-01
      -3.6936405053531520e+00 -8.2229063566106975e-01
      -3.7328279904919831e-01 -2.4537250620100187e-01
      2.2356575008112772e-01 -1.3927752201730353e-01
      9.3452266390762137e-02 -1.9186267557330244e-01
      1.3665074947705322e-01 3.4899143704256580e-01
      -3.1527815098129262e-02 -7.1407342209637820e-02
      -6.5489782548691866e-01 -8.0188639676423257e-02
      -3.7096494191250445e-01 -3.4098136562638004e-01
      -6.0668250150699730e-02 -1.7335470505331341e-01
      1.4007927546859444e-01 1.0642110223289251e-01
      -2.7927741443066978e+00 -6.6596101487316894e-01
      7.8380254444325531e-02 1.3399332619033219e-02
      1.1873901096170046e-01 -3.1752442058488339e-01
      1.6810396548002488e-01 -5.9751078035322917e-02
      1.8694364606615355e-01 3.2555127836397268e-01
      -1.0677040507002535e-01 1.4498605620188434e-01
      -1.1711652765768428e-01 6.9932427653662060e-02
      -1.9000781358347449e-01 -4.8316164921894811e-01
      -2.4225375966551135e-01 2.4176177359458731e-01
      -3.2434837106321601e-01 -2.3396555452584222e-01
      -4.4660858937420871e+00 -4.6886577840595085e-02
      -7.1021831128519097e-01 2.2146861541418275e-01
      -4.3803195659963140e-01 -3.2296460081415718e-01
      2.8011255350209124e-01 -7.3670007820308220e-02
      -7.7445894112894487e-02 -5.4035888699215655e-02
      -3.8237273506032782e-01 4.3237945206641620e-01
      1.2673644446306099e-02 1.2133113987028456e-01
      -2.5433944302476776e-02 -4.7278946133888589e-01
      -2.2591555262702148e-01 -4.9691186130280465e-03
      4.3591887317048245e-01 2.4374521784210937e-01
      1.3772758075381722e-01 -3.5678519614085186e-01
      -1.2647443902261180e-01 1.2350691254184244e-01
      5.3576170107835486e-01 1.0229595316687773e-01
      1.7301391684733869e-01 -2.1179394747893623e-01
      -5.4620303527447026e-02 -3.3031728756073523e-03
      -2.0525729487657343e-01 2.3862659053272833e-01
      -3.4930336984091659e-01 -8.0114909292239828e-02
      -2.6939582225238019e-02 -3.9708517496001428e-01
      -1.9382658243966241e-01 -1.6242327291956885e-01
      -2.1095627910742842e-01 -3.4642871110232260e-02
      2.3758713207510347e+00 -3.6950512499028276e-01
      4.0967259623495367e-01 2.6907562082134096e-01
      -6.6565008653815517e-04 -2.3436130989026895e-02
      -2.7640711321303657e-01 -2.9340093097585401e-01
      -2.7352521583184208e-01 -1.7593625349931197e-01
      1.6784479336609131e-02 -5.7907424729263367e-03
      -1.2124070177859879e-01 -3.9719500258980994e-02
      2.7213268741267310e-01 7.9462196610122193e-01
      -4.1417720060803404e-01 1.0610519757151675e-01
      -4.6752721502152789e-02 9.3214401094478302e-02
      3.6551477684890439e+00 3.2188659437840622e-01
      -2.1794442024660624e-01 2.7688251453080198e-01
      -5.1495802901140597e-01 2.5337034600245764e-02
      1.6673318716798893e-01 2.1724046907125708e-01
      -2.5725389741882049e-01 -3.6474382723157833e-01
      -1.0458265753616236e-01 -1.1183090126439488e-01
      2.2824208133750326e-01 3.7354206205445002e-02
      1.4239662954377488e-01 -1.5728305958120810e-02
      2.6352646420034820e-02 1.8816999712524464e-02
      5.8742463654108722e-03 2.1909718927753125e-01
      3.9916424056284132e+00 -2.2483468567798456e-01
      -4.5521366698572252e-01 2.9865836802394774e-01
      -7.6163894610335972e-02 1.4298184969403048e-02
      -2.1355269896011422e-01 4.9641337510362182e-01
      -3.7200593790652720e-01 -2.1361626454269583e-01
      2.3477848551931979e-01 4.5726501156624089e-01
      -8.5960026825708857e-02 3.3851781442660470e-03
      -2.0974012725712712e-01 3.5048708506768411e-01
      7.7574567701865188e-02 7.3888887657402660e-02
      1.1679567824177710e-01 1.3697107890783150e-01
      4.9049091787317014e+00 1.8343051146243802e-01
      -3.9449802572313641e-01 4.6682029019385018e-01
      -2.3323087363607609e-01 2.2682670508574315e-01
      -2.4426201932922414e-01 2.4965524986453791e-01
      -4.4657065058766160e-01 -3.9778281851385205e-01
      1.7853479546111475e-01 3.3416805572724773e-01
      1.6923857024809763e-01 5.6114910206734432e-02
      2.0153807069870514e-01 5.7375114504505706e-02
      -1.0276747407837822e-01 1.5226697246525009e-01
      5.8432598739100047e-02 -1.1541269125119704e-03
      5.5885120327680049e+00 -1.0797883114449097e-02
      4.0073100313190758e-02 3.0777924334871259e-01
      1.6603030350501768e-01 2.9256315885450901e-01
      -1.9101142491058559e-01 1.4249510046260166e-02
      -5.4555808682602042e-02 5.3671037745212286e-02
      7.4199718765697809e-02 9.9642611509695486e-02
      9.3728353345236562e-02 2.5360927841326375e-02
      3.4082804074362477e-01 -2.8133002664545558e-02
      -1.8982263567195667e-01 9.7603236439114893e-02
      -1.4863240375375814e-01 -1.3022523135491429e-01
      3.6320640749248994e+00 -8.0141914167588368e-02
      -5.2693343455285679e-01 3.5670177400152114e-01
      5.1451963400720135e-01 -3.9143625821177441e-01
      7.5447811884943039e-02 -5.5122364853545902e-01
      2.4851770477217769e-01 3.0431092182199165e-01
      -7.5320066439247157e-02 -6.8072719100237822e-01
      1.9598245460884264e-01 -1.6317675877312445e-02
      1.5053623424153527e-02 -2.6165236844448930e-01
      2.3644741706092412e-01 1.7951361155483611e-01
      2.2636259603363182e-01 8.3565625203379235e-02
      4.1193348796028539e+00 5.7250547833583620e-01
      -1.2081811254656048e-01 3.2390393425123815e-01
      8.9868711634108756e-02 -2.8189536464664061e-01
      -4.5111621706240496e-01 -3.1959193334345137e-01
      -2.0428863190050750e-01 2.2816853990903829e-01
      -5.6676391762092625e-02 -9.1684080002142732e-02
      4.5614911603132724e-01 2.8765879666287286e-01
      -2.6587888025412043e-01 -1.1626213448732969e-02
      -7.4784446959328496e-02 5.0374339362633380e-01
      1.1827725750065889e-01 -1.1474330213034357e-01
      3.9982734394639285e+00 5.2890697007290499e-01
      2.9103975038018298e-01 3.8850258311995611e-01
      2.4733039710518970e-01 2.7099436519323317e-01
      4.9684881682966614e-01 1.0809399393524036e-01
      -1.5674438596381290e-01 4.0939178571793505e-01
      -1.4808306860594103e-01 -3.8181900767961002e-01
      -1.9503017105835388e-01 2.4400680062421791e-02
      -4.5682127350604673e-01 -3.4424214411742676e-01
      1.8480445537176979e-01 2.9396183818564253e-01
      -3.9283385776374274e-01 -1.7086687577883733e-01
      9.1849888182013151e-01 4.1094463484631033e-01
      -1.3155528438493663e-01 2.9403296531095965e-02
      -3.2920454497445956e-01 4.1552705844515325e-01
      1.8244583675382323e-01 1.0181199456335435e-01
      -4.4528919045154713e-01 2.0299628546577689e-01
      1.3699015125496429e-02 -2.1486362239903581e-01
      -6.9493267618340238e-02 1.8782606545129488e-01
      -9.0389490077757106e-01 -3.4807143712082000e-01
      1.5228461869018475e-01 8.5327090657870830e-01
      -7.9400679640448668e-01 -5.8978403206989893e-01
      1.4950554149255654e-01 -5.5481528075330862e-02
      -4.5856967500267265e-01 1.7255984967429924e-01
      2.6543310634967798e-02 -1.6783374591849237e-01
      5.2851731963160786e-01 2.6068163916903891e-01
      4.3171949676490645e-01 4.5317135589801627e-01
      -4.2814505886054552e-02 -5.6655397308279627e-02
      -2.7843350110443860e-01 2.0342217036721311e-01
      -3.4362537041202468e-01 4.7311609760650547e-01
      1.8164070484611788e-01 -6.2696740050897939e-02
      6.9961838069988014e-02 8.2384724162470446e-02
      -4.5617554163572865e-01 2.4778382074824515e-01
      -2.6704311511067635e-01 -2.1182685068620152e-01
      -1.8331119112255972e-02 -3.4205271119928188e-01
      8.0948020074708804e-02 1.4892782781855318e-01
      -1.0921256267908305e-01 5.4124239711306955e-02
      -1.0879081440604889e-01 3.9011845609733815e-02
      -1.0341330255403063e-01 -9.1045136023187617e-02
      -3.6149751389415752e-01 -5.6207557231813843e-01
      9.8334925458994957e-02 -2.7090776369741015e-01
      3.4056181992460849e-01 -9.1542103664770461e-02
      -6.5073659885369339e-01 -6.8292973308994009e-01
      -2.6305595603001636e-01 4.7241132086995395e-02
      -1.0050926347116346e-01 -4.4682188137544077e-01
      1.5733157258948116e-01 -6.0062750675904941e-01
      1.1958671091303487e-01 6.7597061088600752e-02
      -2.3845591494925978e-02 -1.2868038311894656e-01
      2.6696011501362743e-01 -2.0085299971157802e-01
      -3.4642337253804133e-02 1.4605341461663562e-01
      7.4997031483133442e-02 -5.5602764296569497e-02
      2.1729244780443543e-01 -2.9421980397466522e-02
      -1.1948698242970588e+00 -3.8347443275995624e-01
      -4.3299063528380094e-01 -1.2683531302350445e-01
      2.0038987052173746e-01 -2.0246761980816280e-01
      2.8758358496524711e-01 -2.3310699542164112e-01
      -1.9273942544310824e-01 4.3892163977849043e-02
      6.3965300577219442e-02 1.1108117261027194e-01
      -3.1217095522947307e-02 -4.8490659782226553e-02
      -3.4264678843376550e-01 2.2768671472496904e-01
      5.8162399652138756e-02 -2.2556016596155126e-01
      6.2941921195391792e-01 3.8739207791447870e-02
      -1.8068967532496314e+00 3.0724239089393657e-01
      6.3304882910294277e-02 3.2219552672050239e-01
      -5.2580577450631261e-01 -3.1897904753270589e-01
      -2.4902345096723180e-01 -4.8552291188913876e-01
      1.7537196825689180e-01 -2.5527245612409039e-01
      -3.2210482171932803e-01 -1.7024441860197709e-01
      1.9123908824130018e-01 1.1932606483694384e-01
      -1.3072592637886871e-01 -4.0694086797727197e-01
      1.1831524991664011e-01 2.2225717076994808e-01
      2.7299584431707175e-01 -1.9635478064382644e-01
      -1.2340131655770770e+00 -4.6043884115404277e-01
      1.9235066042190364e-02 -8.6361779224520180e-02
      -1.2347360846128172e-01 -5.1625479732244928e-01
      3.3142469383342055e-01 -1.6563881614331934e-03
      3.7579001046154997e-02 2.2964500427493031e-01
      1.7330344159028335e-01 3.3118685202380638e-01
      9.4332487866381806e-02 -1.0612635047678305e-01
      -4.9518213249043180e-01 -4.7403233583059479e-01
      -4.0601756576707032e-02 -8.6052607806333892e-02
      -1.1347853717821077e-01 -3.3812643429898273e-02
      -2.1082247785530686e+00 -5.0263550533616264e-01
      -3.0494273412761819e-01 -2.7725098088868372e-01
      -4.1785276835792123e-01 -2.5280914061588067e-01
      7.3609969279931742e-02 -5.7077102429334781e-01
      3.9813830471920925e-01 1.5914777237758015e-01
      4.0358102715869291e-03 1.3119036789415484e-01
      -1.2408501942872377e-01 -5.1038950838659898e-02
      -1.1523163779864674e-01 -1.2323963892217316e-01
      3.6502993065117251e-01 8.0793143726784797e-02
      -1.4512279849954690e-01 -1.2160814285508464e-01
      -2.7239069608077773e+00 3.0590964629047723e-01
      -1.6658915643147443e-01 8.6766117516328303e-02
      1.8719390199358404e-01 1.1892154269417514e-01
      -2.9880742556538571e-02 -2.1320142333451184e-02
      -3.1476100183383773e-02 -5.0751886124766554e-02
      -2.1680174755696413e-01 -6.3132265970209089e-01
      -1.0430885756902346e-01 7.7218634628995544e-02
      -2.7664948442810960e-01 -1.9456039513118709e-01
      -3.0250021728481130e-01 1.3492279843318705e-01
      2.9405874643399127e-01 -4.1651612190186572e-02
      -3.4221018993067931e+00 -4.2666134885733988e-02
      -1.6342939909770340e-01 1.8846876252197753e-01
      3.8884912860350113e-01 -2.0877424498844904e-01
      -5.8932251175051631e-02 -5.9418204716475587e-01
      -2.4970585021657343e-01 2.0063640447584821e-01
      -1.6760267588472397e-01 -3.0876111265894052e-01
      5.4202683371962740e-02 2.8554867158998087e-01
      -4.7441845704733210e-01 -8.3768367016758636e-03
      -3.1455553459770452e-01 1.7999557232287941e-01
      4.2063169606607237e-01 1.0337131947760957e-01
      -2.1149972736337852e+00 1.4018625979441365e-01
      -5.1544525289152177e-01 1.6273516840868849e-01
      3.1511030781968991e-01 -4.4107881471742534e-03
      -8.4580553608030240e-02 5.8530028530979472e-01
      -3.0895104391559011e-02 -7.8380412912696637e-02
      3.3496980026942409e-02 2.0028304823499049e-01
      -4.4699968655193123e-01 -2.7848649819972571e-03
      -3.0885007116896840e-01 -6.2915954879509337e-02
      -1.2411172493307400e-01 -1.8896559578190992e-02
      -4.4029091271172299e-02 -9.1884845388618491e-02
      1.8500073556213987e+00 -2.5321781555022099e-01
      -1.6973602163164522e-01 -9.8561012376141843e-02
      -9.4322705671088775e-02 3.7168326125294332e-02
      7.3368979541707369e-01 -2.3621924920213208e-01
      4.2975352935101041e-01 5.7939155134336595e-01
      -6.2053330349706826e-01 -1.4140540654111922e-01
      -1.0811323953299258e-01 1.0449244422891838e-02
      1.4189274511508382e-01 3.7774009878530822e-02
      -1.8095927483022212e-01 -1.0274227314827702e-01
      2.1412665302944595e-01 2.1590649415483629e-01
      9.6275425599568309e-01 -4.5801599436112345e-01
      -7.7306798163950929e-01 -1.1316852915507486e-01
      1.0927351327099280e-01 -3.6033522942302598e-01
      3.2055368161040831e-01 -4.4113874327920449e-01
      -5.1524925387847564e-01 -8.7727888303123988e-02
      -5.6278729634168898e-02 1.6292199045855527e-01
      -5.4289504693117585e-01 3.8742286620689714e-01
      -3.4866261546557953e-01 5.8408887284945261e-02
      -4.1289830215573115e-01 -1.0787362390427324e-01
      1.4712540393876095e-03 4.2058391078480556e-02
      3.3738354380012425e+00 4.5985970650086433e-01
      1.2905438018357768e-01 3.2336437974273963e-01
      -3.5890535486330949e-01 -6.3957203208652891e-02
      1.7702942547687722e-01 3.9545801075482673e-01
      -3.0628244181716319e-01 -2.9902263149469283e-01
      -4.7253159012478549e-03 2.4454657677289357e-01
      -3.0281365248757533e-02 -1.6287624347244892e-01
      3.8372102935554608e-01 -2.9277633347293242e-01
      -3.2554055513863966e-01 1.0340851061614401e-01
      -1.8708121326493629e-01 2.2379839355248574e-01
      3.9100360374778158e+00 2.0526386995616784e-02
      -6.8422054278806627e-02 2.4495200452566535e-01
      -4.3300671067176622e-01 -1.4292339574819354e-01
      -1.3332345231142834e-01 2.1030279305835198e-01
      -3.4031157185274985e-01 -4.1847672508050926e-01
      -1.7634767594953818e-01 1.8992956992830626e-01
      -2.1637056579523820e-01 1.2887830037190380e-02
      -4.7527472052177520e-02 1.2693207501154299e-01
      -3.6392053466848001e-01 2.1089481713410568e-01
      3.2573819620645816e-01 2.8292886748991462e-02
      3.4059970408444933e+00 -1.0671258842615299e+00
      -6.7339064016068850e-01 3.2068487153052666e-01
      -2.3614776221838493e-01 -3.7706026169939688e-01
      7.8141379017004187e-02 -1.5765344058419956e-01
      -4.7550586714914517e-01 2.0547109848673323e-01
      -1.9211709947757799e-01 3.5291591663371652e-01
      -1.3171087884618449e-01 -1.1554294771427548e-01
      1.5233722137794684e-01 8.2887371350504595e-03
      -1.5523469539671647e-01 -8.6857594371920907e-02
      6.1310281845296466e-01 1.4964411406950873e-01
      4.2175866722823265e+00 -2.3327511025409281e-01
      -3.1804469188862877e-01 2.0525898361986003e-01
      -3.4541338728591975e-01 2.6311495749029712e-01
      2.7346681418288504e-01 -3.6879348368738224e-01
      -4.9034683525970457e-01 4.0338089669649507e-01
      -1.7322890983750469e-01 5.7198942762597717e-02
      -1.8972595365740874e-01 -2.1622102863187307e-02
      1.5587223143861481e-01 1.2104313856613533e-01
      -1.2141426648843771e-01 2.4620417250043969e-01
      2.7427210258109641e-01 1.3775122050347047e-01
      3.4985257605198323e+00 9.7131032505561654e-02
      -5.0476944727330442e-01 1.7130937650261485e-01
      -5.5838393865688551e-01 1.6361683801611956e-01
      -1.3564227923816801e-02 -2.7666830497937450e-01
      1.4494177897398944e-01 4.2393720408280024e-02
      -2.7259404624744327e-01 -3.5539966814627938e-01
      2.1851739809279147e-01 -2.0721457375174897e-02
      -6.7566822315796116e-01 -1.6014652289816791e-01
      2.0386250044639989e-01 6.6065414642606524e-01
      -4.6498896855567678e-01 -1.2517726273741689e-01
      5.1991768268585252e+00 6.8281347965778683e-01
      -2.3278807204575996e-01 4.4664365278964158e-01
      -5.1964023711364304e-01 1.7438902004361492e-01
      -1.9486292948190470e-01 1.9115374850479061e-01
      -4.3765326613409583e-01 2.6708256616608755e-01
      -1.2435912856497749e-01 -6.2424418633999601e-01
      5.3434956860351646e-01 3.1110802606816967e-01
      -5.4482829185982107e-01 2.5769989996760934e-01
      2.2011854197579331e-01 4.5482041501374915e-01
      -1.2135329913116347e-01 -2.5380726872895071e-01
      3.8885926161489848e+00 5.1925867958979910e-01
      5.5880240512475998e-01 -1.5395865357866240e-01
      -8.2149890166873643e-02 7.9435560500636693e-01
      3.3557546626112361e-01 2.3256965909987551e-01
      -4.1899585677114803e-01 5.1183395239324547e-01
      -4.3048064309569208e-02 2.3458890699267054e-01
      -2.5323434036947057e-01 4.6524809307750847e-01
      -4.4762037986741926e-01 -7.5863127947463804e-01
      2.1505843275567406e-02 7.3063961361222662e-01
      -9.3982662194475297e-01 -4.4172741757604361e-01
      6.1148385478644691e+00 1.0804644227414064e+00
      4.4156685347281627e-01 -3.7048507363292939e-02
      -5.4970269406847450e-01 9.3771639716108346e-01
      -2.9936134238295092e-01 1.6949864087820735e-01
      -1.6128125602183230e-01 1.9453668346930758e-01
      7.2914770249210753e-02 -1.8827132123107693e-01
      7.2414129330424326e-01 1.6396330291750288e-01
      -8.3615585523141123e-01 -2.5427872784924088e-01
      2.7120798265900185e-02 7.9960662921683889e-01
      -1.2293124280614500e+00 -9.1563995622281746e-01
      1.5494276699454133e+00 -7.4416152731634722e-01
      -3.7648810110777059e-01 -9.3084488407522537e-02
      -1.7046710500877066e-01 -5.4165298614051949e-01
      -2.3700634853182165e-02 1.8017045523515049e-01
      8.6576916489271039e-01 -1.0094394428868558e-01
      -1.2137059493880842e-01 3.0966782303374647e-02
      1.8817015545312213e-01 1.4297403091151305e-02
      2.5771947043238881e-02 4.9764899539810598e-01
      2.2977407830662266e-01 -3.0546574333995724e-01
      -5.4872143088911404e-02 5.0073765699906063e-02
      1.2585374492845165e+00 -1.2815068909893645e-01
      1.4206021515400408e-01 -1.5502660698732501e-01
      -3.9671616403981941e-01 5.3371206968297093e-02
      2.3663975151088937e-02 -1.2778221884204558e-01
      4.5013679049339833e-01 -2.2932869794972968e-01
      2.4842667074574201e-01 -1.9967232970618162e-01
      1.0106127541401586e-01 -2.1748994925983625e-01
      2.4671269460457671e-02 8.5372996525268516e-02
      1.7784955731782526e-01 -6.5457959599745194e-02
      2.0589814401337483e-01 1.9836078060064783e-02
      -1.1587357676909769e+00 -1.0403134273599809e-01
      1.7335044661120419e-01 -1.3792401604497817e-01
      -1.6666163253590752e-01 -3.9513521491300913e-02
      1.1757467201812241e-02 -2.1901856749836207e-01
      1.3021141535516367e-01 -4.4283929202503236e-03
      1.5031554583238091e-01 5.8490055576728296e-02
      -1.2885189259831328e-01 -5.7856038656738405e-02
      -1.6678501788917047e-01 -2.4528653058650499e-01
      -2.7714140637063622e-02 2.0252840950326364e-02
      1.3834450120226366e-01 -1.3669147649620186e-01
      -3.4957521507322498e+00 -3.0175991870922153e-01
      -9.2939791386167064e-02 1.7875503467448534e-01
      -1.6568282682467697e-01 -2.4226969777100694e-03
      -9.8752879615082556e-02 3.4771026177924470e-02
      5.5649072521526420e-02 -8.9239911818373208e-02
      3.1518338848539984e-01 5.5890144311147145e-02
      4.3951694936492064e-02 -1.5840803691280239e-01
      1.5043765428026643e-01 -1.8402352829291713e-01
      -3.5971168529101011e-02 -1.2149399157461264e-01
      3.8097814614706932e-01 2.5822686866004477e-02
      -2.0826370497104465e+00 4.2664156211682680e-01
      -3.1883058708541183e-02 -3.9974286391426578e-01
      -2.4797414318070049e-01 -4.9642135397032283e-01
      2.1196512975031839e-01 -1.0613606015367225e-01
      -3.1597345499209245e-01 3.6266264363107875e-01
      -4.8312429672264880e-02 -5.5940379290271028e-02
      -2.8801102844356757e-01 5.5949714724441947e-03
      -2.6184003979645720e-01 -6.5165403859010662e-01
      -1.8926477749271128e-01 -1.6455115033946924e-01
      -4.5292524382076538e-01 -2.3458203815958104e-01
      -9.7684363827005660e-01 1.4345082085704935e-01
      1.9952586610418120e-02 -3.1118758185140449e-01
      1.9651087763255681e-01 2.5432642395214561e-01
      -3.0030154991064606e-01 -1.8964763661167761e-01
      4.9123096649452169e-01 2.8606261020067331e-01
      7.5770971009143206e-02 -4.8142088558583662e-01
      1.2403496404086027e-01 -1.4641374083149147e-01
      2.4647377093858541e-01 3.0082673534302867e-01
      1.5382239429257535e-01 2.8682734447633129e-01
      -2.1898357987945694e-02 -1.2536623480571776e-01
      -2.1360734981079914e+00 -2.7508117584837727e-01
      -4.2754155117699366e-01 -8.2022570797940147e-02
      1.0455186305157108e-02 4.0970668175473546e-01
      -5.8855692723782861e-02 1.8648478107644839e-01
      3.5290180601491911e-01 3.3153906408137024e-01
      1.6452978356406836e-01 -3.9993216754382643e-01
      4.0632040627799421e-01 5.7016147417339492e-02
      2.2438370661598168e-02 2.0427874962401221e-01
      2.2547645041421210e-01 -8.3127271392836363e-02
      -2.3681713613540284e-01 -6.9553467032431912e-02
      -6.8615271939755673e-01 -2.5549178453330212e-01
      -1.9048680648035798e-01 -2.4015095838062872e-01
      4.6019428913958121e-01 2.0977201832804132e-01
      -3.7769631470729592e-01 -5.2668529723337021e-01
      1.9358162085322070e-01 3.5060154837591406e-01
      3.4753299229551871e-01 1.9417851842590445e-02
      2.8162743815221164e-01 -7.9164669764665144e-02
      -4.1078562159481913e-02 4.1399908919004780e-01
      -1.5220870412411538e-01 2.6216651283388476e-01
      6.5366591090246173e-02 2.7365949907457116e-01
      -1.1904426897928608e+00 1.5468690520148196e-01
      -2.0228131336349486e-02 -6.0338862427059901e-02
      -5.3857763886539622e-01 -3.9597893834434811e-01
      5.3718255369639034e-02 4.5087736928474204e-01
      2.3780559885579963e-01 -2.7362598437518743e-01
      6.5335257103561639e-02 5.3047841371661575e-01
      2.0749229641780550e-03 -1.9110707011631717e-01
      -2.4863645672780213e-01 -3.0132183653697964e-01
      9.8883794270228517e-02 -3.1354017590591046e-02
      5.5739911753360911e-02 -1.0982066121353883e-01
      7.2933426794165523e-01 2.2643184136679229e-01
      -2.4134549656074783e-01 3.5065292347231686e-01
      3.6528456968242529e-01 -3.6134046527544317e-01
      4.7534165368281228e-01 9.1354194809638217e-02
      -1.3943994963505429e-01 -2.1335987035240650e-01
      -1.9488768823579306e-01 5.3854451263625192e-01
      -1.2275085602000256e-01 -4.8700941413531082e-02
      -1.1727557117053150e-01 -4.7131291352136756e-01
      -2.5457647411665514e-02 -1.2570550899746458e-01
      3.4246992954611721e-01 1.6139099810303587e-01
      2.3397667884746394e+00 -9.2755566411449157e-03
      -4.8527114466952748e-01 8.1176532105224228e-02
      8.4742511094895279e-02 3.7930345411503158e-01
      4.6768245944859832e-01 3.1701425761222368e-01
      -1.7551768408882742e-01 -1.1625534444281041e-01
      1.5637062849990574e-01 7.4374096434806622e-02
      3.0698038037449256e-02 -4.3877498733912612e-02
      8.3391364954388592e-02 3.8875551774611533e-01
      -4.3572556431957475e-02 5.9472232635622950e-03
      1.6737415903259800e-01 8.2078776233110357e-02
      1.2617173134683939e+00 2.8590029889811280e-01
      -3.6891320814590711e-01 9.7196474486490339e-02
      -3.6233099553688952e-01 -1.6477780032144310e-01
      2.9853896583163153e-01 7.9212421295867075e-01
      -4.3150645520586389e-01 -2.3789775741706023e-01
      -5.4156742253704468e-03 3.5026253981731670e-01
      -2.3247047479345853e-01 3.7770521606601062e-02
      -5.6603110214032984e-02 -1.5392224983336231e-01
      5.9676936164535600e-02 1.2200194734996077e-01
      -2.7294145378893478e-02 -1.2929644180101532e-01
      8.3988937371422889e-01 2.6765231712574639e-01
      -3.3912639559824576e-01 2.4834226745582411e-01
      -3.0307008926391288e-01 -3.5299300147722362e-01
      5.2548495045728373e-02 -1.7721371108846734e-01
      9.1271789706887332e-02 -5.2538932213844503e-01
      -2.4486129528807626e-01 -3.5359084327261475e-01
      5.8631604148212745e-02 1.3588467652660625e-02
      -1.4057597717068260e-01 1.6247842985557628e-01
      -2.1733797959182455e-01 -7.0366331157896547e-02
      7.3279080497053617e-01 3.7345168131309597e-01
      2.0162055088626700e+00 -4.7775833154134179e-01
      -8.9212212418749415e-01 -1.6190359318945449e-01
      -4.3192055515202538e-01 -5.6454185144683988e-01
      8.1878661750410764e-01 -4.2344652910349578e-01
      -6.6551593824881061e-01 2.3169689012511907e-01
      -8.8170332011053315e-02 -2.4368270690083280e-01
      -6.4646613881240100e-01 -1.4366030903527696e-01
      -2.6093111000724883e-01 -5.2806728869494912e-01
      1.7884102140018100e-02 7.7810326600796814e-02
      8.7860552596694763e-01 4.5423184534340011e-01
      3.2990437070892709e+00 6.6783331514887717e-02
      -5.3599477964051279e-01 3.7082370310496338e-01
      -2.1652723744999508e-01 -1.6363705484682092e-01
      6.0631423235209059e-01 -4.3906362812232941e-01
      -4.2679187838124499e-01 1.2531362841345026e-01
      1.5268422738778245e-02 -1.9378024972890839e-01
      -1.0058595780449309e-01 -5.6162891952203801e-02
      -4.8874134106342632e-01 -4.8377147585055774e-01
      5.6463178800193109e-02 2.2668712012902381e-01
      1.5521405979477965e-01 1.9324142860766044e-01
      4.1604563315096250e+00 2.5734329477180070e-02
      -2.2434434310935020e-01 4.1602579818754715e-01
      -4.1048481757407024e-01 -3.9205194071959831e-01
      6.6886714927360380e-01 -1.3988853268619116e-02
      -9.6336411253752896e-01 -2.1100669028552529e-01
      -2.5279883443148826e-01 -2.2782563443386639e-01
      -2.9897904019148575e-01 -8.2576683632693632e-02
      -1.6115773184359697e-01 -3.5320107605855566e-01
      -2.2817849470460896e-01 3.9520867473408555e-01
      1.1566409093940512e-03 3.8570107845568774e-02
      4.8114399501802980e+00 3.1199278918916973e-01
      1.3231664624181047e-01 1.0734944371885183e-01
      -1.6585093080739907e-01 4.5645615147003726e-01
      -2.6621674178381327e-01 7.9554814822962241e-02
      5.7887726599151236e-02 1.7384111888327819e-01
      -2.1828677012996958e-01 -2.4589577799490681e-01
      3.5192276742924594e-01 1.0207866965309997e-01
      -3.3050360672260209e-01 -2.2144645891665909e-01
      1.4498660441661193e-01 8.0812941729922982e-02
      1.8135450627203392e-01 -3.0260033641725720e-01
      4.0342943835296161e+00 3.0955620107756660e-01
      5.5334331466133624e-01 5.0316051082031021e-01
      -3.9346730369177862e-01 3.0113895893527259e-01
      -2.9946138016354734e-01 -9.8925143777012281e-02
      -5.8370517567374358e-01 6.1923577113039731e-02
      -3.2619978961963408e-01 8.6794600821239576e-02
      1.1772691781284990e-01 4.2379175533349955e-01
      -2.2111378932889234e-01 -5.9706229584020054e-01
      -4.3083248184602602e-01 6.3948664941836875e-01
      -5.6797169255377411e-01 -8.3947215060121594e-01
      4.0785723684831288e+00 8.5899336168422780e-01
      9.0863577687067210e-01 5.3056287547759462e-01
      -8.3568103535346536e-02 3.6872013325583514e-01
      -3.1569485552061582e-01 3.3170989062181945e-02
      7.4225636593180710e-02 -2.3805075632841538e-01
      -2.4510775627135287e-02 -7.0007762236689619e-01
      8.5212567562561470e-01 4.1628698473821901e-01
      -6.7862925233379612e-01 -8.2178381860279381e-01
      2.5590862874976124e-03 6.9706954473251115e-01
      -6.4295721256780203e-01 -1.0076228168735009e+00
      2.7774897495770063e+00 1.8874025192673263e-01
      4.4969864895452427e-01 -3.5633492047109971e-01
      -4.0630720061983039e-01 -3.6425624687247304e-02
      -6.1253662367478046e-01 -3.9287103170638404e-01
      -3.3436310848635370e-01 1.4429671646222228e-01
      -1.7280114126212490e-01 4.5296624780187589e-01
      3.3008938582327196e-01 1.8273540151050743e-01
      -4.8217089887515929e-01 -2.6448763159886302e-02
      5.8062191830448619e-02 3.1665449220589337e-01
      -1.1336526840473203e-01 -1.2859881034241225e-01
      1.6138725906200488e+00 -3.0106927110035936e-01
      1.3274646721835914e-01 4.4081540219492642e-02
      -2.8684857389794183e-01 -2.1400091331376950e-01
      -7.6430820885441619e-01 -2.5022592504469549e-01
      5.4366551788071815e-01 7.0986643693704415e-02
      -2.1111956654626235e-01 2.4413976284423464e-01
      4.1284691042748239e-01 3.2674889078662797e-02
      -6.1340756785398007e-02 3.4987696276046837e-01
      1.5651046405553215e-01 -2.9171769073571534e-02
      -5.6636541730340127e-02 5.0390597876671332e-03
      -6.4361833420282996e-02 -6.9014664355370636e-01
      1.0508030966004876e-01 -2.1085895320643208e-01
      -4.4423451411733156e-01 1.2357936594057765e-01
      -4.7088002607747242e-01 -1.9412748729794560e-01
      6.4994146117685747e-01 -6.5164929775914218e-02
      2.5762862522855035e-01 1.3985362886015526e-01
      7.8332658135532363e-02 -1.7192459167561508e-01
      6.8245983305712146e-02 3.5681084595112611e-01
      3.0244962219049920e-03 -4.0266013308334425e-01
      -1.8485941721151139e-01 -1.2107609787759874e-01
      -2.2059303695173207e+00 -7.3159971286573144e-01
      5.7896765334775346e-01 -8.1886997182993426e-01
      -7.1827799371435685e-01 -3.7028891430093434e-02
      -2.7733341601320075e-02 -1.1232086414147505e-02
      3.2624465444160317e-01 5.2694709575458409e-02
      5.1744513139985127e-01 4.0474251389903643e-01
      2.4065741386203743e-01 -1.6958423627677482e-01
      -1.3167543851796348e-01 3.0159242289677407e-01
      1.4456423035620714e-01 -1.9848107204099089e-01
      1.1527416766119868e-01 2.4189707614747882e-02
      -3.0384134489484733e+00 -3.1713694317909591e-01
      -4.3882441947585622e-02 -3.6784594347781731e-02
      -6.2851723791160385e-01 3.3134579616175286e-01
      7.6562774730176669e-02 5.5942155121963966e-01
      2.5423521412854105e-01 -9.2467533308840305e-02
      3.3171838512623286e-01 1.3707187325097847e-01
      8.9582829580874795e-02 -5.2964395186456549e-02
      9.9829832550130167e-03 6.0258679846199970e-01
      4.2300698346929309e-02 -1.5909501983912896e-01
      3.4224004148207610e-01 1.7476513009071587e-01
      -2.1881604217623956e+00 -2.9697606426031464e-01
      -2.9377306407145104e-01 -3.8997266844173123e-01
      2.2057322107963265e-01 5.7710897491986379e-01
      1.6224933145615583e-01 3.3520949466701766e-01
      3.4889859879181118e-01 5.0336402906716737e-01
      4.0643962997791272e-01 -1.7020556029366912e-01
      1.6619000755746557e-01 -1.6229454279424904e-01
      -4.9341090586615299e-01 3.0666282893953722e-01
      3.4225158553849971e-01 -8.9882426365625157e-02
      -4.9615320462180346e-01 -5.6314165323309170e-02
      -1.4831110023493785e+00 -2.2633536290813130e-01
      5.4832625613983521e-01 -1.8462083109729954e-01
      -2.6470332852384948e-01 4.0643693523952062e-01
      -1.7870173385977769e-01 2.1240301836252451e-01
      7.4634284850315880e-01 -2.2445557032254798e-01
      1.5992708817629192e-01 -7.1745277074018329e-02
      3.1723318259417688e-01 -2.7075925748949650e-02
      1.0411866567871455e-02 6.5684103818292827e-01
      3.1474992692431564e-01 4.7757716689606974e-02
      -2.1495373674116564e-01 1.0216115716676118e-01
      -2.5132153481631608e-01 -3.5030525523623229e-01
      5.2165164560652888e-01 -6.2903713754540158e-01
      -8.1168750717025362e-01 1.1596038085844133e-01
      -8.8141378197567372e-02 -1.2737525994129088e-02
      7.4281266612476737e-01 1.8240459255113729e-02
      1.1834152388434184e-01 2.5007438353124622e-01
      3.3856277843111160e-01 -2.2356387724220805e-01
      1.6534458412213035e-01 4.1817345140082396e-01
      2.7304798700787714e-01 -1.9825536586520720e-01
      -2.0603926902388883e-01 3.5620118314584970e-01
      -1.1691392390404713e+00 -2.6080772502088373e-01
      -2.6424270837559405e-01 2.2230713832544404e-03
      -4.8854588195004177e-03 5.1366260398266439e-01
      2.1105269320102862e-01 4.1230753557710670e-01
      5.2200747558611682e-01 -1.1305186332781653e-01
      1.6492260021009927e-01 -1.0244315992749110e-01
      -2.9784022216079231e-01 -4.2003647172991466e-02
      1.0904920187392714e-01 8.0851203815928085e-02
      2.3740130210058667e-02 -9.9423085541845396e-02
      3.4606904896457867e-02 1.4869572150179436e-01
      1.9485594174561865e-01 2.1006622303376493e-01
      -2.7305905236858458e-01 -1.1282710907198791e-01
      3.3227570976502030e-01 4.2521670172667503e-01
      1.8458573848139004e-01 5.6680022723430201e-01
      1.0235363841032816e-01 -1.9660067908685899e-01
      1.2135423804903078e-01 -5.6534878357444224e-02
      -2.6261567080924841e-01 1.6605296686657271e-02
      -4.4090975474216039e-02 3.7081382087488957e-01
      -3.5370489236617891e-01 -1.0902518293046357e-01
      -3.8719651981456445e-02 1.9730511333658304e-01
      2.2536872999011917e+00 7.7511712568727340e-02
      8.2099315624314084e-01 1.2577499128901687e-01
      -2.3918747279494365e-01 8.2073417909957050e-02
      -7.6804892531154188e-03 -2.5231341355244202e-01
      2.0609669982333761e-01 -2.2715635197591877e-01
      8.5176230567327066e-02 -5.7168246677430909e-02
      3.8196708196190254e-01 3.8191778459235076e-02
      3.2853272366648584e-01 1.1788805104297492e-01
      2.3865621643702681e-01 4.2925445140737529e-03
      -2.5970339903242212e-01 2.4504144839565120e-01
      -7.5823784871935584e-02 -1.4760000062539660e-01
      4.8763870675169255e-02 -1.3919153864835923e-01
      4.4760441552395364e-01 -1.2767067307002586e-01
      2.3200733048854158e-01 -2.5378417461294134e-01
      -3.0086047890411571e-01 1.0261059591324560e-01
      1.0880632149925105e-01 2.1952971163016896e-01
      -6.0579697209289618e-01 -2.9311728031065104e-01
      -2.5278143423835547e-01 -1.4419925637096798e-01
      -1.2140816928866811e-01 9.1693843649238813e-02
      -3.9454761011967165e-01 6.3869982197155409e-02
      -1.8685071567593292e+00 -2.0661374448824285e-01
      -4.7710205832750985e-01 -1.3901550086339173e-01
      -2.9872917547783784e-01 -4.7535236349375648e-01
      -1.1769844070402978e-02 4.0751865644043583e-01
      -2.2510006664043927e-01 1.7971244803139252e-01
      1.1955963200348221e-01 3.3739528875334857e-01
      1.1704064562263347e-01 -1.0593711935375616e-01
      -4.4893471855509778e-02 -1.1133418378422924e-01
      1.1184486149997258e-01 9.9730806204176542e-02
      3.6087601209638659e-01 1.5998218535077113e-01
      -5.9497362937677889e-01 6.5180028151606662e-01
      -1.0403217519296472e-01 -4.3936538970160387e-02
      -3.1457006699453377e-01 -1.3532656025928375e-01
      3.8756106504890514e-01 1.3111527903047371e-01
      -5.5408712130711002e-01 1.9646125889543015e-01
      -4.6110179382846367e-01 2.2110849014054493e-01
      -1.0999702991626557e-01 -2.6189798347433658e-02
      -3.9786049433607362e-02 -6.6887532567017849e-01
      -1.8130369581371455e-01 -7.4392424857229356e-02
      1.5196844496351458e-01 3.0026299727216627e-01
      7.4324127669887607e-01 5.5204340251506012e-01
      -1.8286721406867198e-01 -4.8759165157870613e-02
      -2.4795382880563510e-01 -8.9452551906038391e-01
      5.9550693808542909e-01 -2.1906065779728714e-01
      -4.7939271384969195e-01 -4.8549152726308226e-01
      -4.0729898603708237e-01 -5.7962599979208174e-01
      -3.5371027072541139e-01 -6.0957223167840281e-02
      -8.9095914166826606e-01 -7.9115276012707048e-01
      9.0546345201645076e-02 8.6908154253827641e-02
      1.1909267486010799e-01 -2.2519440774128704e-01
      2.9042330912482517e+00 1.4674311191273037e-01
      -5.3070475519763338e-01 2.6181027015547042e-02
      -7.1189270324864218e-01 -7.1574448130837232e-01
      6.1821015168318383e-01 -2.5891258868714273e-01
      -7.6412506044895107e-02 -1.9724031177873744e-01
      -1.7884288326981643e-01 -6.0933497486830046e-01
      -9.8768443203501283e-02 1.1403866414480992e-02
      -6.9467480836038908e-01 -8.8246320190245964e-01
      1.3179629156632777e-01 1.8360564508590713e-01
      -5.0992457022143028e-02 1.9128558065902128e-02
      5.7277156581460735e+00 8.2002364296210828e-01
      7.0771597314493631e-02 1.0098034491693675e-01
      -8.7163979744991249e-01 1.0525834025347797e-01
      4.8123452070104916e-01 3.4154536937346330e-01
      -2.7193502161645783e-01 -4.3946304829130728e-01
      -1.4018999751985733e-02 -2.5702534438684971e-01
      2.1993757244973600e-01 1.8472584509795789e-01
      -6.7821782627877614e-01 -5.3434220358944162e-01
      4.6944561323903490e-02 3.2039461229653743e-01
      3.5309856252437827e-01 -3.2854561061022758e-01
      5.7618037601471874e+00 1.5945107628405020e-01
      4.2322429673951889e-01 1.8293830255067897e-01
      -6.4497263112939640e-01 -2.1336642479601178e-01
      3.3127480908363072e-01 -2.3341651991379574e-02
      -1.6001450206391690e-01 -6.0630430946473961e-02
      -6.5190995319840378e-02 -6.8112949491781510e-02
      4.2869387945167876e-02 1.8183771457188319e-01
      -4.8770914478619248e-01 -6.3135018148203070e-01
      2.4886906277015425e-01 -1.0628610750444302e-02
      -7.6731646035469253e-02 -7.9236681153580524e-01
      5.0155016178561018e+00 -8.1313031573544040e-02
      1.5560666491184936e-02 4.0507208698109681e-01
      -2.3169607040320531e-01 3.1072818279935277e-01
      -3.6230092731615360e-01 1.8815923958554948e-01
      -3.2491944777436216e-01 8.1809449476775931e-02
      -1.6507482602718812e-01 1.0620057960435661e-01
      6.3891330019983716e-01 4.2600430170770431e-01
      4.1101194768624442e-02 -1.7098991313357872e-01
      -2.4239623364027210e-01 6.0749843791344960e-01
      -7.4499712524787265e-02 -8.1908239826353768e-01
      4.7523151655944300e+00 4.0496475885454616e-02
      8.5573757329694478e-01 2.3184266242605656e-02
      -4.8269083232418353e-01 -8.3127052936526530e-02
      -2.8659235384627962e-01 6.1729833819276894e-02
      -6.8511563729809755e-01 1.8193593449600101e-01
      -1.1186078352146742e-01 2.8257720668646619e-01
      3.8678551853930021e-01 1.8265675522469368e-01
      -1.7693225846227850e-01 -2.6998179853248627e-01
      -2.4115474497967465e-01 6.4963773506718492e-01
      1.3380003475046140e-01 -2.4598618459526439e-01
      4.3454513393921141e+00 1.7777132213858673e-01
      2.4924804060980232e-01 -3.4409008344175468e-01
      -8.5409340814337986e-01 -2.3914841448863849e-01
      -3.4997463843742455e-01 -3.5654209603447168e-01
      -3.8731517269587051e-01 4.9445466915472985e-01
      -2.4550628940577859e-01 4.1340592799098647e-01
      7.3677693008683320e-01 6.5724114313418153e-02
      4.9900772668107213e-01 4.8254799981069423e-03
      3.7994487711170855e-01 4.6776832821978842e-01
      4.0829709528326075e-01 -5.3273842009330712e-02
      1.6786351125416374e+00 5.6396150986609639e-01
      4.7428849610264190e-01 -2.7062771268663327e-01
      -3.6868264315779631e-01 3.3054212584104253e-01
      1.5785160398804279e-01 -9.8784292812508478e-01
      -2.9880507263628947e-01 5.6624777848091967e-01
      -1.7003332496517389e-02 4.8899278029719179e-01
      -1.4794239533733922e-01 2.5492984109691125e-01
      8.4624856911230298e-02 1.1005123631087876e-01
      -5.0299685175928380e-02 6.0291044069046051e-01
      -4.2301711188705765e-02 5.9801052892902851e-01
      -1.4343207318297915e+00 -4.2064165123148212e-01
      3.6696671851612367e-01 -8.4879122328413770e-01
      -2.0343835751696859e-01 5.5328373528220655e-02
      -9.5124166636710458e-02 -3.5545969745246757e-02
      4.0765087956124539e-02 3.3804208100213962e-01
      2.2764234419858034e-01 8.3752774351768411e-01
      -2.0748413125836745e-01 6.4832671221327964e-02
      2.0087021595209528e-01 -2.2635847426024958e-01
      -2.8706080010604984e-01 -4.0804324605756498e-01
      -1.7448615616348387e-01 3.7785001932273848e-01
      -2.7103582522673477e+00 -8.5481717573362903e-01
      3.4817891732871198e-02 -8.1120663292969430e-01
      -1.2867910394328683e-01 -2.2456099466264531e-02
      3.1085959567689517e-02 -2.2486294558406675e-02
      -2.0231527672613141e-02 3.9463115248948727e-01
      3.7639469150595484e-01 4.9334419280567077e-01
      -1.7811889572741088e-01 -2.3779097841788022e-01
      -6.5373215533269854e-03 5.4254374499085906e-02
      -2.9244940672438963e-01 -2.1359863735597243e-01
      1.0006371580529839e-01 2.0298089980639997e-01
      -2.6380423820778010e+00 1.7682175389612884e-01
      2.0927795751380610e-01 -4.6667496558103860e-01
      -2.1280566315531424e-01 1.0036406416286157e-01
      3.7713541155447103e-02 1.5406609993309064e-01
      7.0021059153578169e-01 2.3948434202436442e-01
      1.4374692623629845e-01 1.5164924058669171e-01
      9.0336687525361323e-02 -3.0862435717202102e-01
      3.3945511385428409e-02 -1.7616624662152683e-01
      4.8480899935613941e-01 -2.0098812803633948e-01
      5.5703443845315233e-02 1.6017425639834956e-01
      -3.7990775690099947e+00 7.5697289353706315e-02
      2.7984389550023403e-01 -4.8184468258218177e-01
      -5.6575247509448801e-01 1.4024859692018257e-01
      1.3870873179079668e-01 1.1131865847019171e-01
      7.6383041243769378e-01 -1.9583241242223223e-01
      3.4302564756958094e-02 4.9309822700620537e-01
      -2.1778724168174393e-01 3.6038978075277450e-02
      -7.5869024836770868e-02 6.8305354217021566e-02
      2.4852685548378706e-01 -2.9280759656151467e-01
      -3.5864940670646583e-01 2.1217756060378606e-01
      -1.0785994957837570e+00 9.1614184506081706e-02
      3.8950859275519983e-01 -1.8217239918870154e-01
      -3.7412228174054102e-01 1.6142317531066715e-02
      1.2186960375839420e-01 2.0400905290008028e-01
      2.4053834634784060e-01 -4.5666968214799764e-01
      2.6681245820068755e-01 4.4342361078914032e-02
      1.5289125690247543e-01 -3.2546130506176690e-01
      3.6358415962505042e-01 2.0320213353271876e-01
      -2.9077609292496259e-01 -3.9791652723465371e-01
      2.7426436571522794e-01 4.5183993450194426e-01
      -1.5051822345434032e+00 -2.9176747952668874e-01
      -1.1784838255050219e-01 -1.6580313514748599e-01
      -7.6610096340323328e-02 1.7577197923075959e-02
      -3.1556030844017535e-01 9.1573091527732423e-02
      -3.5344365912521364e-01 -8.5215058241224731e-02
      2.9619254163448078e-01 2.4378397360375284e-01
